9664 14
35 -0.5048507 -0.716527 0.53122437 0.79916847 0.22883822 -1.1486536 0.78588825 -0.98265064 -0.6487461 0.12873165 -0.40163434 -0.4044621 0.4045538 -0.03315241
6006 0.26922435 -0.51383775 0.9497401 -0.922324 -0.6059537 0.7009233 1.1022067 -0.83750385 -0.28686652 -1.674316 0.53514546 -0.59059435 0.015784483 0.5605901
2642 -0.11857484 -0.7526311 1.194698 0.3277488 -0.27760026 -0.5397965 0.9731614 -0.40829954 0.22822818 0.55313873 0.10359612 0.12605287 0.6381758 -0.27442357
2125 0.67656696 0.021768052 0.18393022 0.093168415 -0.37442625 -1.2713196 0.62601066 -0.26049998 0.33106497 0.25686523 -0.2221799 0.62513685 1.6090293 -0.23349412
1810 0.6181745 -0.24335015 0.7042843 0.117993966 0.4460769 -1.0760213 0.7481576 0.29794273 -0.3188619 -0.088289134 0.21022299 0.14284796 1.1291084 -0.0025712517
2028 0.7903045 -0.6865199 0.9825638 0.1127616 0.35222697 -0.57198405 1.088821 -0.16344672 -0.22826411 0.6654147 -0.06242648 -0.13232972 0.6722556 -0.28635946
905 0.7112835 -0.18243538 0.3026726 0.8059209 0.29352346 -0.9480437 0.7750222 -0.3185075 0.019570602 0.08296711 0.26964533 0.65977937 0.35144955 -0.07121404
4172 0.2911513 -0.5467286 1.1074194 0.68869424 -0.16274802 -0.93608063 0.078222916 -0.48585245 0.1221397 -0.28811923 -0.08732462 0.9764586 0.54172546 -0.6389117
1 0.86137223 -0.71902746 0.13162181 0.71869475 -0.08879983 -0.8626885 0.8064025 0.02310469 -0.060225263 -0.34021816 -0.15716738 -0.39403984 0.172776 -0.65684825
6008 0.15741332 -0.75179887 0.15120922 -0.03492456 -0.6342613 1.1632628 0.7830264 -0.9935603 -0.21984728 -1.2947176 1.3162266 -0.23235233 0.48979038 0.18278323
6013 0.43734458 -0.33571216 0.47006994 -0.36972308 -0.5294806 0.9072236 0.40730146 -1.4354434 -0.22435719 -0.7547177 1.2901537 0.6273108 0.78454113 0.91351706
7 0.95128757 -0.9234123 0.027638024 1.3003474 -0.1122368 -0.4792374 0.9244456 -0.026326519 -0.07629929 -0.29192778 -0.36882958 -0.42784044 0.26915145 -0.5062842
6007 0.48277742 -0.20839444 -0.29943526 -0.6840086 -0.032805122 0.6573181 0.915021 -1.4074234 0.1615811 -1.2891084 0.12782511 0.2702623 0.7842148 0.42600816
6016 0.49180478 -0.122441314 0.17851123 -0.8465774 0.18110612 0.45133975 0.41286123 -1.3458269 -0.1253601 -1.1891024 1.0365115 -0.1056928 0.8843569 0.28335914
6012 0.38149273 -0.88350475 -0.07154566 -0.29366666 0.1830353 0.6330737 0.07623777 -1.6136105 -0.76759636 -0.93466866 0.98033446 0.012927109 0.5805827 0.26855043
1018 0.52871555 -0.91525733 0.8263237 0.14803241 -0.45889756 -1.0271829 0.8272955 0.027582489 0.55321956 0.22845785 -0.12220299 -0.09134467 0.8074269 0.12955475
6182 0.38028875 -1.0810953 -0.37235576 -0.23851296 -0.39811578 0.5794404 0.4346537 -1.32099 -0.48186848 -1.120954 0.9393 -0.2715025 0.3962604 0.6905987
13 0.7087445 -0.38929206 0.7144576 1.1416782 0.3948336 -0.6744299 1.3394374 -0.38377383 0.046699688 0.23342478 0.08073372 0.0060286545 0.15899983 -0.68664855
6009 0.21843494 0.074913315 -0.5115739 -0.52197915 -0.4156605 0.6077478 1.494081 -1.5368236 0.15274017 -1.3259796 0.12634885 -0.046714 0.43167463 0.36343023
4197 -0.17583402 -0.6396201 0.90800786 0.6141748 -0.07792652 -1.0963624 0.5367878 -0.0643019 0.34867856 -0.24209675 0.4562947 0.3635286 0.8537245 -0.27128723
3129 0.86698884 -0.39605832 0.91940653 0.8716004 -1.391429 -0.8870084 0.29666132 -0.96952426 -0.2425431 0.29534587 -0.81208813 0.6309118 0.22114986 0.4543075
2388 0.30736881 0.09132634 0.85263115 0.14592437 -0.36745253 -1.0678381 1.4849786 -0.16380458 0.070305794 0.055090755 -0.24710712 0.18030939 0.48891106 -0.5609835
1953 0.5594677 -0.3741888 0.7712186 0.43842307 -0.2739007 -0.6761001 0.15343952 -0.9650944 -0.85804576 0.44622874 -0.021495245 0.4372783 0.8506119 -1.6148574
2296 0.5109342 -0.40746 1.2488112 0.18378338 0.25012198 -0.69343 0.94237065 -0.26668954 0.1989252 0.33179104 -0.28965366 0.23771295 0.6703381 -0.14537302
6020 0.37427342 -0.45776993 0.4472642 -0.24299356 0.09865609 0.6836554 0.12985937 -1.2909925 0.22471325 -1.6281681 -0.2674828 -0.28129563 1.5461657 0.94226474
1334 0.7506353 -0.4002194 0.8896552 0.80878687 0.15426321 -0.792182 0.7526461 -0.18680611 -0.073892795 0.30778936 0.58252734 0.34244862 0.32252672 -0.19355088
1386 1.1584944 -0.46265912 0.5594512 0.8131223 0.41717404 -1.1925068 0.2294708 -0.08510333 -0.33826834 -0.10851024 0.7417926 -0.43729234 0.3130486 -0.08038459
2067 0.8275592 -0.6132189 0.73929226 0.5493587 0.36351988 -1.2261075 0.6960702 0.31307063 -0.94248015 -0.23819293 -0.15791285 0.08800701 1.1608251 -0.32596138
3988 0.014893414 -0.4047791 1.2343444 0.61863 -0.23324402 -1.2028666 0.9196344 -0.065416284 -0.3118531 -0.6888112 -0.034130335 0.5386552 -0.048191193 -0.34882247
6010 1.3649696 -0.20892327 0.3929868 -0.4116272 -0.21875875 1.3055968 0.40712145 -1.0015601 0.114540845 -1.2050582 1.1132811 0.20365608 0.62803966 -0.16957177
4291 -0.026691249 -0.5462168 0.6763652 0.38614202 -0.04000402 -1.3722908 0.7937191 -0.15456487 0.42842785 -0.41338098 0.060587075 0.47811604 0.5324754 -0.23582692
6015 0.17780945 -0.1168856 -0.28619894 -0.66691035 -0.027044188 0.36746505 0.96068037 -1.2356414 -0.6012283 -1.7631916 0.8229844 -0.1815219 0.6627355 0.3166304
2045 0.28812578 -0.24168336 0.27139604 0.41219994 -0.20680726 -1.157833 1.161172 -0.114274316 -0.33703464 -0.11020816 0.08420094 0.68597174 0.5846708 -0.8173836
1396 1.0109377 -0.40076575 0.48697647 0.64024943 0.3789039 -1.4997532 0.7107141 -0.54268754 -0.07563148 -0.04429313 -0.11402308 -0.1420403 0.18490568 -0.6133743
546 0.47619572 -0.24972889 0.57365954 1.2276331 0.37850434 -1.2267078 0.9831617 -0.68227786 -0.008886965 0.26841035 0.090866454 0.3269938 0.5972203 -0.5820137
1352 0.60985464 -0.3368828 0.23636538 0.30816358 -0.54682875 -1.5704983 0.5284753 -0.507544 -0.08040181 -0.17958707 0.706904 -0.2765041 -0.14648804 -1.0153311
6014 0.37620625 -0.80229545 -0.060030848 -0.93026 -0.34498063 0.5450279 0.37837324 -1.7317429 0.06734945 -1.059693 0.3026921 -0.7338988 0.8851476 0.13223428
6011 0.22837329 -0.4755215 0.3117944 0.17723136 -0.43107328 1.076529 0.3363327 -1.8527905 -0.18535998 -0.80277056 1.0313468 -0.19231996 0.5569183 0.7534266
6031 0.61802906 -0.53978956 -0.11200888 -0.4167903 -0.15034665 0.7032658 0.31521827 -1.5252042 -0.122449934 -1.2158685 0.9424367 -0.63407326 0.68547314 0.27303463
6018 1.2354467 -0.84829396 0.054889143 -0.5797389 -1.0199968 0.653209 -0.07652554 -0.42510948 -0.37760988 -1.8845605 0.7872531 0.39423332 1.1296309 0.23207483
1899 0.83201176 -0.60180604 0.500831 0.5183147 0.06537344 -1.1554267 1.239617 -0.47383055 -0.11535605 0.8312056 -0.16271971 0.010721589 1.0236528 -0.51670665
2266 0.6447763 0.2018913 1.038375 0.70041394 -0.41763324 -0.6026259 0.952013 0.068868265 -0.37035403 0.36194974 0.2335867 -1.004965 1.2066058 -0.51115423
6027 0.662845 -0.6802723 -0.02478563 -0.9309828 -0.30982104 0.71128404 0.32070464 -1.5276686 -0.6004211 -1.1265169 0.28252578 -0.1719177 0.9768796 0.22976936
3735 -0.0729897 -0.46865842 1.1890502 1.269633 -0.9891119 -0.6462775 0.93694776 -0.5199063 0.25810277 0.5448197 0.41331777 0.40819594 0.7562903 -0.40763322
2625 -0.020423846 -0.5100976 1.3623071 0.30777204 -0.37631315 -1.1999266 0.8187168 -0.15411323 0.3337357 0.11044325 0.45413378 -0.020967565 0.52082855 0.11412312
6038 0.27013293 -0.32438278 0.4624438 -0.8566664 -0.30722323 0.5651547 0.32210845 -1.2415972 -0.57917464 -1.3355731 0.9717753 -0.13626812 0.94434977 0.29639104
2942 -0.061710738 -1.0160053 0.59729135 0.6407056 -0.120210476 -0.94887316 0.79705125 -0.08078628 0.2657561 -0.047480185 0.3695246 0.7082016 0.6273615 -0.13570975
3897 0.111599915 -0.28008506 0.5711025 0.8556062 -0.16387253 -1.0900811 1.1069664 0.07154517 -0.19505236 -0.1919334 0.1615436 0.9736328 0.8922167 0.2309501
6017 0.5459345 -0.32121864 0.7273633 -0.15637371 0.10101014 1.278451 0.50994056 -1.1723241 0.021290168 -1.1831102 1.2012539 -0.1865662 0.6225546 0.10181419
1565 0.599897 -0.4696903 0.20040363 0.44535732 0.026667796 -1.0143915 0.9068304 -0.08392874 -0.12250943 0.21554765 0.4206186 0.38199842 0.5750048 -0.3554506
202 1.1827757 -1.2518206 0.23647436 1.1581478 -0.49911785 -0.48877072 0.73786026 0.21227552 0.3514209 0.007190717 -0.15211762 -0.32713896 0.77612084 -0.48470566
6035 0.552336 -0.51851505 -0.10848809 -0.2508425 -0.10299809 0.6058403 0.67186666 -0.9181993 -0.30177242 -1.3370605 1.261551 -0.3455154 0.62852997 0.9771539
6063 0.8565275 -0.65992844 0.4431908 -0.36633053 0.44731742 1.2032039 0.526636 -1.0290751 -0.26304725 -1.7866013 0.7162031 -0.051881477 0.4096531 -0.20434725
1317 1.3121703 -0.5351961 0.4533422 0.5753697 0.46254155 -1.0635986 0.5472697 -0.39101663 0.23716119 0.19792497 0.37164342 -0.23494703 0.0801 -0.17139126
6021 -0.10956088 -0.32435784 -0.4726598 -0.122103475 -0.45993343 0.8515927 0.9172228 -2.109619 0.35989836 -1.0790768 0.21239102 0.4413463 0.60570854 -0.05161864
6100 0.45304564 -0.513122 -0.22192484 0.08302327 0.25292823 0.7411529 0.49217817 -1.1437639 -0.6420914 -1.6302167 1.023241 -0.03975532 0.62879485 0.5717899
6022 0.45926023 -0.44987848 -0.40149215 -0.90704113 -0.0690035 0.26371536 0.4019539 -1.6071653 -0.013407816 -0.9415208 0.58582574 -0.60771173 1.0690259 0.31039974
3451 -0.1558993 -0.31139565 1.3385975 0.9274549 -0.010267611 -0.90131086 1.0175083 -0.013960793 -0.15829603 -0.48176843 0.009910313 0.45712617 0.48086753 -0.46963167
3828 -0.13630012 -0.27847287 1.1963998 0.6448614 -0.26226106 -0.8636883 0.8795432 0.016280675 0.35368177 -0.41334423 0.3094695 0.47701734 0.5221518 -0.52591246
304 1.0986869 -0.29603365 0.2565204 0.63806295 0.23110655 -0.94639003 0.64368325 -0.49092442 0.1221294 0.38471526 -0.030660719 -0.024830712 0.72048706 -0.67704576
135 1.0555636 -0.4622286 0.38120407 0.33620718 0.14727305 -0.8457462 0.88456494 0.071486264 0.103725776 -0.27987325 0.18655653 0.032719225 0.10409996 -1.0232754
4559 -0.15567264 -0.22055791 0.06957636 0.55183727 -0.45116416 -1.6900368 0.60893285 -0.67515254 -0.03555247 -0.17043516 0.21226779 0.7306357 0.687028 -0.55080277
3649 -0.14683832 -0.80419046 0.92387015 0.7195622 -0.12315705 -0.85771376 0.8987383 0.11017937 0.018101651 -0.24770935 0.26705956 0.6028693 0.675641 -0.20148848
6030 0.39805514 -0.3807301 -0.22024249 -0.5182146 -0.40610173 0.21363378 0.38556257 -1.4357613 -0.30386075 -1.4741309 1.3537002 0.09315566 0.48907942 0.77630985
1566 0.94743615 -1.2240653 0.19185437 0.8501369 0.21619223 -1.5122677 0.34490228 -0.47902298 -0.17554814 0.25734627 0.34974706 -0.42540246 0.36134112 0.2485225
1383 1.1996285 -0.657992 0.17484203 0.49357128 0.07774904 -1.2943256 0.17438307 -0.5667915 -0.03432328 0.13510256 0.29088175 -0.25526536 0.12172462 -0.36068004
6029 0.34746298 -0.62249315 0.07765749 -0.55605525 0.04541703 0.66793996 0.44825247 -1.3708783 0.032320444 -1.2706741 0.8598819 0.085709184 0.75538707 0.54832923
1832 0.45819318 -0.5798947 0.8751904 0.49775147 -0.028818691 -1.2306813 1.0385597 -0.24494618 0.019971197 0.21629907 -0.13837934 0.3055252 0.6462033 -0.31623456
6048 0.74235743 -0.96164215 -0.067390844 -0.5836397 0.13727963 0.6778973 0.2744605 -1.6924115 -0.5761975 -1.1467743 0.72093993 0.45571575 0.19389562 0.35471877
6024 0.619688 -0.26276925 0.49579865 -0.24524216 0.47499138 1.2027218 0.6160738 -1.1600885 -0.22343737 -1.2920702 1.0023259 -0.0445007 0.7629267 0.23096637
41 0.728487 -1.4169682 0.38997465 0.6944198 0.25361732 -0.82861197 0.64389247 -0.2199227 0.4670114 -0.22045772 -0.22799906 -0.3757469 0.03060933 -0.15722638
832 1.0910984 0.6391876 0.026299326 1.2614192 0.09288303 -0.77470315 1.0070131 -1.017558 0.5655758 0.016653381 -0.098080575 -0.48720407 0.10364903 -0.45660973
6019 0.3213081 -0.7175226 0.03774629 -1.1189835 -0.34579813 0.2988899 0.48220208 -1.9133427 0.6080619 -1.0017031 0.6534619 -0.56072545 0.42358562 0.18400493
25 0.6992295 -0.74068946 0.92950684 0.77606595 -0.102844566 -0.97452444 0.56990606 -0.0999877 -0.12670712 0.030914443 0.29971582 0.018787611 0.25961825 -0.385421
6026 0.258537 -0.33347 -0.34301367 -0.7320548 -0.14679292 0.24203305 0.45200953 -1.5326066 -0.4369286 -1.2203615 0.8013938 0.27104586 0.6926611 0.31183782
13569 0.6629184 0.99879 0.1776912 -0.72399443 -0.53316647 0.18973282 0.41934556 -1.6829488 -0.8484623 -1.5017302 0.05991071 -0.10817748 1.1344179 0.03570365
13608 0.347458 -0.564838 0.07917495 -0.99283564 -0.79305065 0.42324743 0.2461388 -1.727405 0.2050827 -1.0826069 0.15171151 -0.3453269 1.1190667 0.48599467
2600 -0.031257086 -0.9030483 0.7328297 0.5022766 -0.39280826 -0.7935158 0.9279978 -0.044405024 -0.053997073 0.40978107 0.3558277 0.57960486 0.95347565 0.32413232
2635 0.97094905 -0.6676794 1.4937317 0.3290724 -0.13389868 -0.50031954 0.15251803 -1.1849041 -1.0164384 0.42987514 -1.029188 0.4144469 0.6407425 -0.9366226
257 1.0407343 -1.4331537 0.08340102 0.92638195 -0.7342865 0.13111794 1.2054802 -0.4501063 0.21511288 0.16874819 -0.4726377 -0.45809186 -0.16486463 -0.942376
6090 0.5687533 -0.524519 0.19293201 -0.20334567 0.3559264 0.9141244 0.41982275 -1.3081251 -0.36474857 -1.6501553 0.65684265 -0.0007386254 0.6346939 0.48471534
1731 0.60716355 -0.9399626 0.50027466 0.47969934 0.19300579 -1.0671932 0.82667035 -0.20238024 0.2695742 0.23036835 0.033516757 0.3571199 0.74285525 -0.52783644
6150 0.44211432 -0.6553018 -0.5005322 -0.58058894 0.28175822 0.7033529 0.61645335 -1.2320731 -0.36908078 -1.5088358 0.23463264 0.228749 1.2309202 0.2767242
353 0.59535414 -0.7126473 0.21823777 0.9975848 0.4397605 -0.9771278 0.64438874 -0.24826607 0.4068499 -0.23849255 -0.0077037187 -0.093657576 0.5577615 -0.52296096
1615 0.88450384 -0.37162945 0.17418224 1.0093716 -0.2548373 -1.4856042 0.770427 -0.86891645 -0.93571967 0.27441186 0.16316283 -0.19868621 -0.29119954 0.4415889
1585 1.1292608 -0.97177327 0.10132786 0.39057523 0.57507 -1.3410705 0.67771953 -0.40464497 0.1179603 0.31765732 0.38809696 0.13751297 0.35719314 -0.33591667
6134 0.3153418 -0.47022372 -0.54542434 -0.19350566 -1.3107557 1.0249454 1.4434748 -1.4574333 -0.16693196 -1.3471534 -0.425638 0.7244846 0.47900626 0.23953153
2934 0.5278462 -0.060376767 0.75255066 -0.04187807 -0.26967818 -0.984708 1.3936197 0.30876434 -0.4275023 -0.35823342 -0.41343448 0.54240185 0.5127022 -0.24282785
4694 0.14232019 -0.39957464 0.609372 0.41327876 -0.033419676 -1.2037549 1.0860004 0.14182147 0.3479955 -0.2907273 0.29231563 0.7919145 0.66606987 0.40716052
3598 0.00934402 -0.78525794 1.156973 0.4401664 -0.11368305 -0.82262015 1.3291202 -0.37384322 0.49785224 -0.036773093 -0.032802016 0.39156082 -0.2211494 -0.4280325
6034 0.6197423 -0.42726985 0.03578989 -0.21934819 -0.08022135 0.83746994 0.47529426 -1.3398188 -0.44477844 -1.3580084 1.0827043 0.029963458 0.43929622 0.46803102
6032 0.34894353 -0.63199294 0.67335933 0.19524446 -0.17635687 1.1949586 0.14341797 -1.5341436 -0.18264243 -1.297747 1.134994 -0.36772266 0.38800773 0.13554242
1217 0.751784 -0.38637182 0.89283824 1.7012224 -0.07432365 -1.1670907 0.6791451 -0.72515815 -0.7704154 -0.07285851 0.09751088 -0.56552577 -0.32384408 0.44913512
1771 0.7174727 -0.8119906 0.15745038 0.8183984 0.7703292 -0.78078854 1.1033424 -0.934628 -0.29378748 0.8497686 0.5227555 0.17334042 0.13799933 -0.4417247
3018 1.0818956 -0.41791883 1.2322892 0.83064616 -0.8789655 -0.2519987 -0.010006872 -0.9543033 -1.0376747 0.40810704 -0.043899056 0.89156735 0.5415515 -1.2233899
3744 1.0138217 -0.13411763 0.43669817 0.41662836 -0.48634854 -0.74122626 1.0838016 0.05022092 -0.44741648 0.3114258 0.13781147 0.35934734 0.3828351 -0.1748732
3722 0.3703016 -0.12664837 0.7409539 0.030190827 -0.70699275 -1.6081309 0.727994 -0.24393427 0.027687691 -0.47316024 0.6326854 -0.0064082667 -0.15422703 -0.89474237
2897 0.17391804 -0.6634264 0.9851789 0.22584002 -0.63727504 -0.5870574 1.34371 0.17472428 -0.11647265 0.6404749 0.5179712 -0.088508084 1.0126375 -0.46018314
361 0.4278217 -0.4918492 0.84103966 0.24280623 0.098946996 -0.8028826 1.2238917 0.063735746 0.27539197 -0.21894926 0.056688726 0.3048618 0.21909136 -0.8729341
6045 0.43604836 -0.46963176 -0.022271667 -1.0007825 -0.4259751 1.0269109 1.3227243 -1.6412477 0.09515191 -0.7013083 0.17410028 -0.1776522 0.693918 0.41309202
8341 0.65531015 -0.6276197 0.61702406 0.23731478 0.33939126 1.2289096 -0.010332575 -1.2158684 -0.14018089 -1.8745407 -0.109375656 -0.14621684 1.2852861 0.45725906
64 1.244974 -0.53115726 0.16333418 1.6644202 -0.44189084 -0.5890762 1.0837407 -0.26988152 0.61277276 -0.101699784 -0.10956743 -0.03051136 0.13472986 -0.36767533
6047 -0.04905664 -0.21727277 -0.045549035 -0.6925858 -0.11533829 0.68782467 0.810769 -1.4591607 -0.170847 -1.3671168 0.8720482 -0.07790603 0.81396353 -0.29184058
4611 -0.17185812 -0.42241466 0.80827093 0.6673302 -0.46583006 -1.4783367 0.81508905 -0.07268669 0.33667484 -0.5904543 -0.19533163 0.51513463 0.8852525 -0.2631454
4635 0.19202226 -0.18082957 0.3726402 1.0637218 -0.043058824 -0.8948825 1.0589849 0.1095098 -0.13482074 -0.2133585 0.30134118 1.0831269 0.94843537 0.5568252
11347 0.5900028 -0.19057591 -0.6361844 0.17109914 -0.6443628 0.3236762 0.31828785 -1.5262201 -0.30464906 -1.7294661 0.8659286 -0.5029746 0.30518818 0.45958567
6023 1.1390747 -0.022459568 0.57338375 -1.0033058 -0.3861399 0.45325148 0.594043 -1.9117919 -0.34466514 -1.3508394 -0.0048506525 -1.0963773 -0.04775586 0.35866767
3719 0.09440265 -0.69626105 0.6747947 0.66419566 -0.01634493 -0.71189415 0.91393507 -0.28017595 0.38172463 0.021871027 0.29959625 1.0797925 0.71761537 -0.97500026
1201 1.2548112 -0.445907 0.749023 0.7036001 0.21923918 -1.2291998 0.32710034 -0.2588081 0.086383596 -0.02247903 0.574877 -0.1447697 0.051855657 -0.24162804
6803 -0.030784866 -0.9049275 0.07679245 -1.4647398 -0.3768875 -0.023188477 0.5681103 -1.0020671 -0.31801978 -1.8111175 1.0092738 -0.20845579 0.7976954 0.05120976
6056 0.35644692 -0.6596264 -0.228825 -1.0418942 0.21249111 0.14632012 0.2118008 -1.5923923 0.10846207 -1.1526904 0.7966537 -0.17053233 1.147597 0.40455726
6041 0.39157262 -0.28691468 0.3352104 -0.15176503 0.035770334 0.9991315 0.62261677 -1.2508485 0.30483824 -1.4647796 1.4558574 -0.10283286 0.5151202 0.12662517
6050 -0.12520142 0.39665768 -0.10393249 -0.5796158 -0.0037065342 0.6814543 1.2852305 -1.95289 -0.24846968 -1.1331564 0.18475719 0.116264544 0.8891202 0.19566263
6040 0.50824577 -0.3384063 0.41306928 -0.51800394 0.0407043 0.12435612 0.06952993 -1.3093492 0.4074164 -2.2178056 -0.21922821 -0.43247744 0.66761124 0.66995263
6043 0.7822912 -0.526826 0.115533486 -1.1877239 0.2761282 -0.16616118 0.5977224 -1.7019784 -0.0066210106 -1.7610315 0.035082392 -0.7509173 -0.1440516 0.5212294
2198 1.1410187 -0.5116568 0.71754056 0.37940502 0.13750662 -1.380151 1.0209247 -0.5554751 0.105191395 0.6305029 -0.110223755 -0.041713 0.6069496 -0.5115778
6037 0.38251296 -0.66039205 -0.20491445 -0.6862922 0.09633648 0.6738441 0.66116506 -1.436005 0.025834983 -0.9892003 1.2885228 0.0538554 0.71471924 0.27651837
57 0.5918219 -0.6377359 0.5573131 0.52473885 0.19006048 -1.1633743 0.9394768 -0.100431554 0.27462244 -0.1013462 -0.048082914 -0.09820302 0.4587076 -0.47249728
3916 0.15363929 -0.6224859 1.3136637 1.1555759 -0.40549785 -1.2190913 0.5145521 -0.35449135 0.16033228 0.10235961 0.20059066 0.5707613 0.8518098 0.06534534
2194 1.0002089 -0.64498365 0.2877127 0.27457187 -0.5070929 -1.182695 0.66553694 -0.25434273 -0.72772384 0.15948097 0.51431143 0.35510543 -0.2208285 -0.40250614
545 0.45110184 -0.51046896 -0.034149904 0.92486537 -0.49442324 -1.4604844 0.6960196 -0.5335407 -0.70636606 0.014986426 0.89901274 -0.2880898 -0.1494667 -0.621533
1744 0.6463734 -0.8019962 0.32005125 1.0723759 0.6498369 -1.110272 0.7280477 -0.97791594 -0.35214528 0.8204797 0.666009 -0.09130316 0.4184411 -0.34739757
60 1.0938144 -1.1747907 0.1438964 0.7909475 -0.6968754 -0.46262926 0.9675567 -0.11531951 0.27657524 -0.39962506 -0.79013056 -0.7197851 0.06579599 -0.80168706
6074 0.5282635 -0.5740128 0.49542108 -1.642113 -0.41899633 0.05592717 0.23117486 -1.4357103 -0.15258421 -1.4583097 0.85911655 0.18993112 0.5923031 0.22892328
13609 0.655507 -0.35039225 -0.06869231 -0.1668902 -0.51134664 0.6956649 0.19479808 -1.6631811 -0.44854224 -1.7264043 0.618234 0.012914271 0.6066736 0.65368944
1162 1.156958 -0.078243606 0.9442043 1.5343337 0.49008748 -0.908931 0.38524416 -0.59695184 0.47809494 -0.41654205 0.1698292 -0.7531221 -0.08362038 0.35174224
4649 0.24285655 -0.43925947 1.1032923 0.4334509 -0.02975081 -1.3855022 0.8199448 0.16218269 0.17995262 -0.78039116 0.16265382 0.5769982 0.24108766 -0.25032222
6084 0.69800556 0.30220535 0.026322337 -0.70916116 -0.3517234 0.7240705 0.87234414 -1.8941207 -0.45235005 -0.59459764 0.15195985 -1.4383649 1.0827807 -0.053329658
6028 0.3089386 -0.36865428 -0.21062304 -0.5158076 -0.9949324 1.0884646 1.2684826 -1.8103769 -0.08412435 -1.270087 -0.49219865 0.7232185 0.6227374 0.18831702
2835 0.36595777 -0.7746069 1.0689698 0.23720628 -0.054968618 -1.0022961 1.0743314 -0.03204519 0.18169215 0.09035089 -0.047389854 0.24202877 0.48560366 -0.270894
6130 0.9006159 -0.11124697 0.15560277 -0.04739204 0.39586145 1.1747983 0.6959221 -1.0062361 -0.3078619 -1.5519886 1.1100146 -0.16195887 0.568104 -0.013621531
1363 1.1966299 -0.116004266 0.81699705 0.33827418 -0.09118439 -0.89958185 0.8957847 0.20864744 -0.36718026 -0.21888418 0.062273487 -0.23520592 0.11040143 -0.43800125
5227 -0.020030778 -0.6482778 0.8760022 0.7278213 0.0807771 -1.3257152 1.2241857 0.08955876 -0.3929936 -0.78139144 -0.7311095 0.29539138 0.7047378 -0.6734272
1802 0.9726321 -0.37477586 0.81330705 0.23376077 0.40299967 -1.1779903 0.7538733 -0.07962328 -0.06858307 0.19310221 0.57463807 0.034126 0.4464978 -0.51620215
6036 0.33164057 -0.33391023 -0.066011794 -0.42075035 0.08931158 0.8370396 0.72034174 -1.5302833 -0.15363863 -1.501257 0.7484152 -0.17114739 0.68025357 0.19413434
6039 0.5181413 -0.25746116 0.5489386 -0.24518715 0.3634802 1.0757817 0.66876316 -1.371737 -0.033890408 -1.3472074 1.375788 -0.060947135 0.3422201 0.08531339
3878 -0.16875176 -0.294389 0.50291187 0.14988494 -0.4315936 -1.6579617 1.0258664 -0.30686656 0.07525514 -0.33608553 0.6290708 0.08619776 0.117992714 -0.77905905
2725 0.6342809 -0.7664776 0.97544175 -0.0005407363 0.012139734 -0.5628386 1.1160104 -0.15205492 -0.14272718 0.60413116 -0.23965149 -0.019646076 0.7656541 -0.4575921
4532 0.23358062 -0.9387512 0.74063694 -0.02914872 0.07037493 -1.3109627 1.4239559 -0.056225147 0.16036946 -0.50132966 -0.78603137 0.81885767 0.31705672 -0.30051506
2173 1.5153048 -0.5128711 0.7392914 0.28510964 0.3252254 -1.0327384 1.0735849 -0.5739561 -0.114061445 0.5170192 -0.008810111 0.3955648 -0.1044346 -0.64486486
4 1.0942037 -0.66728866 0.47439462 0.8239711 -0.2535679 -1.3704747 0.7093258 -0.5396932 0.22336772 0.04654556 -0.41100964 -0.8729521 0.39319935 -0.7891274
6054 0.5176979 -0.39304158 0.3392953 -0.20329738 0.2220709 1.1673425 0.7413588 -1.142234 -0.03421283 -1.3614955 1.2741301 -0.12234777 0.5576437 0.14873582
280 0.23443943 -0.685661 0.5938041 1.4850119 0.0935974 -1.038328 0.19472356 -0.23823082 0.47144875 -0.60838807 -0.1675087 0.0995781 0.7733681 -0.042779107
1555 0.6641594 -0.47585595 0.5209895 1.0332035 0.26320753 -1.4459387 0.9648384 -0.59471714 -0.005121325 0.25180063 0.043562848 -0.17563668 0.35307375 -0.16840059
2404 0.012239803 -0.6326683 0.9099979 0.9264216 -0.45021722 -0.9517967 0.93466675 -0.30826297 0.4875786 0.34153077 0.28829727 0.2458408 0.8987338 -0.29656926
537 1.1109062 -0.364524 0.039475795 1.0621586 0.22950889 -1.0069185 0.8012636 -0.20971449 0.41566712 -0.1102135 0.12903182 -0.5260106 0.3563042 0.054626353
6057 0.087283894 -0.58828884 0.12146175 -1.2210658 -0.15101737 0.13156143 0.27420533 -1.7816782 -0.47472337 -1.1494292 1.090908 0.046910826 0.8477419 0.2937616
1860 0.91042024 -0.51222 0.08470854 0.68254936 0.7435867 -1.2725452 0.7783574 -0.71185017 -0.0065919566 0.62626445 0.2946292 0.0029874197 0.8007134 -0.24414185
6072 0.3584302 -0.3840353 0.12229215 -0.94582754 -0.15937045 0.40627393 0.43796203 -1.4839294 -0.14854497 -1.4864354 0.7810716 -0.26138574 0.5750172 0.00656173
2647 0.8394356 0.08653988 1.5396767 0.6049141 0.02094747 -0.07282514 0.50309557 -0.6682153 -0.8954131 0.31394014 -0.62488484 0.49348316 0.6978498 -0.8012874
468 0.85945904 -0.41849023 0.41831926 1.3055841 0.1617697 -1.1365035 0.27373356 -0.8628717 0.7116597 -0.25067702 0.0051031737 -0.65817416 0.21693717 -0.8092999
6070 0.15662023 0.10235572 -0.4174743 -0.79097337 0.049792107 0.22787301 0.638136 -1.8607703 -0.20924672 -1.0979273 0.42053762 -0.41004333 0.9778214 -0.11328023
775 0.5476543 -0.08959074 0.24209431 1.9405969 0.06992854 -0.7000438 1.037143 -0.7069656 -0.97400045 -0.014930721 0.3009344 -0.74807316 -0.037644546 0.14268106
882 1.099283 -0.2483282 0.55785125 1.1919613 0.61016774 -0.8239463 0.4030476 -0.5518608 0.6243516 -0.06996123 0.37700084 -0.16997395 0.24347605 -0.43268898
6078 0.7481354 -0.62694246 0.021731768 -0.053900115 0.024556255 1.1772121 0.77644557 -1.2982239 -0.2993995 -1.2095807 1.037824 -0.16567695 0.47113666 0.7490431
4833 -0.09640759 -0.25891602 0.92102444 0.8332305 -0.02984853 -1.3802606 0.8478583 -0.25745523 0.46699992 -0.44671685 0.076630905 0.41178036 0.5918521 -0.27060056
6062 0.39780617 0.17267871 0.27423048 -0.87467366 -0.11435145 -0.06518358 0.8187395 -1.7953941 -0.4922124 -1.9405189 -0.16093145 -1.1470877 -0.022620678 0.08403836
6051 1.7483135 -1.0491662 -0.21282706 -0.575034 -1.2058883 1.0193362 0.61941516 -0.34154013 -0.6560877 -1.7672569 0.8653818 0.43273354 0.6274245 0.38401458
6092 0.31806973 -0.46266812 1.0207512 -0.41607738 0.15695883 1.1192389 0.42875674 -1.203856 0.11278442 -1.7731229 0.7080394 0.38848564 0.7629949 0.39484408
523 1.0474828 -0.19149724 -0.3228922 1.8257453 -0.3554865 -0.82365084 0.61952764 -0.78604865 0.05940116 0.4942963 0.526216 -0.29120025 0.7527094 -0.44847065
2110 0.045840934 -0.21712168 0.8127667 0.53649807 -0.13834663 -0.88723475 1.043069 -0.15648009 0.36921418 0.2915276 0.34947875 0.08603732 0.95209914 -0.17534731
3452 0.03927707 -0.27497232 0.85087913 0.6131184 0.15061347 -1.3338689 1.1779088 0.02576591 0.048611686 -0.48821422 -0.058906578 0.4288006 0.82743204 -0.8519198
6025 0.5566161 -0.33805197 -0.018510401 -0.9796391 -0.1663391 0.63757807 0.50901276 -1.7140217 0.18191421 -0.9698646 0.43864352 -0.47392136 1.0929515 0.268117
6055 0.09633666 0.26954463 0.1796695 -0.79893076 -1.1523811 -0.020779936 0.10278797 -1.9343624 -0.12027441 -1.7212561 0.48577908 0.0446245 0.64441526 -0.22878405
6044 0.2819935 0.08442583 -0.085792296 -0.8507878 -0.39607105 0.6179253 0.6367938 -1.6809163 -0.45232886 -0.8188008 0.44705382 -0.64948976 1.5461462 0.113797486
2378 0.6671953 -0.9379766 1.3406299 1.039424 -0.3608885 -0.29832175 0.20545207 -0.5867655 -1.0997186 0.076741986 -0.5521898 0.67885965 0.6879783 -1.0828713
104 0.7551434 -0.9575331 0.55725783 1.1870768 -0.3376377 -0.75009924 0.8507561 0.030799024 0.43141204 -0.62724066 -0.44884506 -0.31358445 -0.02275537 -0.25658488
6053 0.06503336 0.4397473 -0.09019776 -0.7627358 -0.40855035 0.5013293 1.1595199 -1.612655 -0.09608902 -0.99223256 0.40465868 -0.69042706 1.2601014 0.41142496
1693 1.0514092 -0.5847575 0.2232378 0.6073289 0.05665066 -1.1774124 0.5304145 -0.45162323 -0.25653765 0.43568692 0.7253158 -0.08719171 0.34140888 -0.70128936
6046 0.31612906 -0.415648 -0.28542247 -0.62877417 -0.22096288 0.2779358 0.38674802 -1.4644545 -0.36376435 -1.3927732 1.0577571 0.16042301 0.91751826 0.7408779
1629 0.6744175 -0.98553693 1.0181081 1.0878296 0.20255604 -1.082853 0.69062734 -0.26867202 -0.44077367 0.34162387 0.52115273 -0.036790628 0.32836455 -0.21024795
6496 0.61435187 -0.617367 0.24269368 -0.22633559 -0.3142396 0.47902098 -0.14703749 -1.6504701 0.21373563 -1.8661354 0.16180727 0.30874303 0.5556988 0.79517
6129 0.48558658 -0.8665604 -0.29191762 0.041349046 -0.5087343 0.8083368 0.5185801 -1.3148575 -0.65719914 -1.3502258 1.0339956 -0.0920069 0.4159893 0.85334635
13600 0.4019558 -0.70568615 -0.23986651 0.5091827 -0.2379997 0.8527345 0.56944937 -1.4845597 -0.18404737 -1.4481046 1.2351346 -0.35857227 0.14836477 0.8679933
215 0.5777278 -1.1969212 0.06772932 0.783786 -0.47701153 -0.8198069 0.79800636 0.20489839 0.23389271 -0.16541782 0.005450624 0.07596978 0.55670196 -0.27283138
2063 0.3526242 -0.7281799 0.98984164 0.74821043 0.20891479 -1.1584713 1.20547 0.0065723746 0.013884247 -0.06482354 -0.049304876 0.25222465 0.56072295 -0.24382019
6109 0.29084483 -0.6769021 0.7217792 0.097427435 0.3106952 0.95327324 0.0067405943 -1.3194544 0.34668174 -1.9044826 -0.066522606 0.145893 1.3631287 0.74054414
592 0.93077826 -0.23953874 0.45773122 1.0046428 0.11675912 -0.7892829 0.5693408 -0.40654078 0.17074569 0.15058303 0.16952026 -0.46555084 0.43904728 -0.5121191
6119 0.490239 -0.78621435 0.43379477 -0.10253891 0.6202945 0.7989413 0.37573984 -1.1112369 0.47428137 -1.910123 -0.31698942 -0.13390858 1.4589217 1.093344
2877 1.1013316 -0.23267065 0.6655677 1.6616246 0.1030506 -0.0053029642 0.79724544 -0.3335582 -0.31254077 -0.14387219 -0.20744449 -0.9043768 0.11323938 -0.40076476
492 0.71772414 0.06039622 0.77477705 0.93594545 -0.17072672 -1.2670687 0.918357 -0.9788146 0.4155177 0.43295047 -0.3132743 -0.75027466 0.29237813 0.15099618
1281 0.7354463 -0.8558469 -0.04355715 1.26901 0.31689018 -1.4001274 1.0381241 -0.60686535 -1.0906256 0.40447715 0.084535316 -0.11844662 0.4683795 -0.14174172
6171 0.6852439 -0.5165765 -0.5552232 -0.5073557 -0.4557662 0.14768352 0.34286094 -1.2709424 0.10713688 -1.7430302 0.95868033 0.026228191 0.7812068 0.9887406
6122 0.61379087 -0.7007523 0.008031362 -1.1874504 0.06726774 -0.07137176 0.52854383 -1.6135765 -0.54642314 -1.6686594 0.3042607 -0.08836755 -0.1261636 0.5105032
6193 0.92222655 -0.5377597 -0.3427143 -0.46495077 -0.0029567329 0.96476996 0.5909084 -1.4523774 -0.3908916 -1.5900838 0.10575807 -0.15001847 1.0425367 0.50909585
6093 0.4446769 -0.7271471 -0.278195 0.061203465 0.17741643 1.3290067 0.9035783 -1.2549224 -0.30284813 -1.1678303 0.72375953 -0.14492595 0.8717002 0.40373087
3707 0.30239102 -0.43602875 0.31948245 0.10740732 -0.872097 -1.7627554 0.72921664 -0.32457337 -0.042384993 -0.28795642 0.81736386 -0.028564306 0.053457517 -0.9922716
2176 0.71021205 -0.5691549 0.6714544 0.14836703 0.47957876 -0.73777145 1.0083303 -0.25370634 0.21006458 0.34577876 0.15312432 0.21083927 0.5074926 -0.78296125
6075 0.30195943 -0.70006925 -0.0056794514 -0.8106212 -0.30997476 0.32944754 0.0035599782 -1.4620486 0.018233454 -1.4640404 0.3443855 -0.12997288 1.1947384 0.37749383
1543 1.0934645 -0.42479303 0.6752095 0.43318105 0.77062577 -1.1064332 0.56984776 -0.35881954 -0.41631958 0.32482177 0.46009237 -0.11892529 0.5164082 -0.61270654
1675 0.7728676 -0.6859352 1.0556316 0.5159182 0.45670727 -0.98169434 0.7240666 -0.53429544 -0.124553874 0.70032984 0.15021259 -0.10217279 0.5414377 0.17083824
6042 0.84324974 0.2739703 -0.46358386 -0.80959773 -0.11149491 0.3877673 1.0494558 -1.4958471 -0.10163278 -1.4794699 0.13632403 -0.04850545 0.8109474 0.7119583
6080 0.34853062 -0.14119296 -0.26890424 -0.5856155 -0.51529473 0.53153926 0.5025385 -1.5575435 -0.4134941 -1.1943526 0.47736105 -0.37454244 0.87371063 0.018004416
5612 -0.22770351 -0.21913199 1.0416957 0.32172695 -0.07868082 -1.3571758 1.3170339 -0.055240873 0.10333763 -0.8407976 -0.3800518 0.6220132 0.27534157 -0.3116412
3837 0.1408793 -0.7622733 0.60565275 0.6889534 -0.2600109 -0.7820231 0.88219243 -0.19070949 0.549821 -0.0017699797 -0.10897097 1.0209761 0.81572217 -0.07208307
6083 0.3096076 -0.078346774 0.26914066 -1.237674 -0.5414427 0.19055338 0.38456628 -1.860085 -1.066486 -1.1101646 0.64791566 -0.13332729 0.7960977 0.36103457
171 0.8867955 -0.5332704 0.2008884 1.2767304 -0.42317423 -0.98682857 1.2608248 -0.26332346 0.20764491 0.22789674 -0.37109888 -0.28568834 0.749657 -0.5760075
4107 0.6450368 -0.7223697 1.1419063 1.0442055 -0.8400109 -0.69323856 -0.22204411 -0.6862162 -0.8561306 -0.13248225 -0.41440907 1.1904082 0.80700237 -0.69060534
6049 0.46050593 -0.14696482 0.26059458 -0.48385146 -0.53699493 1.2821162 1.0871321 -1.9687861 -0.15901496 -0.9652187 -0.005030859 0.19063438 0.42343882 0.24231492
937 1.308811 -0.23775794 0.4628829 1.3703372 0.61348504 -1.3365632 0.8679521 -0.8305416 0.1501652 0.4497917 -0.13870016 -0.24780278 0.63478667 -0.13087752
729 0.83335716 -0.345999 0.59271574 1.0272986 0.15167846 -0.99093956 0.78074384 -0.5390069 0.34285358 0.35910717 -0.15352324 -0.41751453 0.6588513 -0.08650597
687 0.6146074 0.0033431186 0.30903828 1.3491162 0.2641354 -0.5208791 1.1177231 -0.8789201 1.1134057 0.21980043 0.15413202 -0.26026726 0.4134461 -0.7827911
908 1.1884577 0.33916044 0.14949454 1.0129236 -0.2194029 -0.7267534 1.1488875 -0.9737791 1.0389962 0.39674482 -0.26816088 -0.88509953 0.4554565 0.04606761
6095 0.19523862 -0.0585681 -0.033079486 -0.66352427 -0.41025946 0.48759472 0.72282696 -1.7508109 -0.6207941 -1.0940381 0.75741273 -0.43554056 0.73267406 0.5283947
6 1.0622879 -0.74085456 0.45511544 0.6281276 -0.39570963 -1.0984248 0.62278056 -0.13774107 0.038319863 -0.104177885 -0.09555679 -0.33906966 0.09182415 -0.37578827
6159 0.38160717 -0.024237506 0.43269396 -0.36059046 -0.09392882 0.8538592 0.4630833 -1.7564024 -0.7316876 -1.058306 0.6386222 -0.03397317 0.50853497 0.3099082
6135 -0.027929628 0.30795032 -0.15340742 -0.5959865 -0.98858386 0.5155387 0.5959211 -1.2491246 -0.78806037 -1.4971048 0.7571971 0.027236616 1.6084143 -0.29788026
550 0.68779165 -0.07038848 0.59466183 0.9407727 -0.0881018 -1.2893605 0.58781797 -0.31460515 0.20208554 -0.19880508 -0.2651993 -0.08407849 0.6396083 -0.2227568
1316 0.88803124 -0.5717388 0.52186245 0.5748172 0.17674248 -1.2062875 0.6835698 -0.13251318 0.034831237 -0.070778385 0.19850408 0.115550205 0.2826553 -0.27609488
1735 0.53765255 -0.54071206 0.21151088 0.39435655 -0.6457833 -1.916165 0.76991737 -0.5406883 -0.57250965 -0.02577999 0.8076492 -0.021076778 -0.08474247 -0.96189487
3820 -0.23180602 -0.58647877 1.0486673 1.153613 -0.29159582 -0.9753668 0.61052865 -0.14896989 -0.06757145 -0.06249913 0.8502118 0.579616 0.7521458 -0.39929393
13570 0.5087673 -0.8958161 -0.23638202 -0.96706665 -0.25350216 0.19590661 0.24074464 -1.3230251 -0.14837764 -1.1303105 0.81394464 -0.2715316 1.0017984 0.7788701
3366 0.5355665 -0.5212456 1.3808775 0.24284309 -0.7147542 -0.9646609 1.0188277 -0.17076167 0.021557499 0.6268323 -0.028835889 -0.32179233 0.75665593 -0.06340755
6033 0.52635616 0.8239947 -0.07789436 -0.49536568 -1.2060246 0.21744621 0.71240366 -1.5650163 -1.0507711 -1.0830253 0.5459538 -0.24717851 0.9687946 0.52128434
6101 0.3132974 -0.51214385 0.64210045 0.2994824 0.57392895 1.0564358 0.287659 -0.9899677 0.017449114 -2.012156 0.4567998 -0.36595806 1.0149245 0.55983734
2 1.0640088 -0.40284815 0.22793572 1.04034 -0.7318637 -0.71086264 0.9069318 -0.14651133 0.34104285 -0.35951868 -0.029769622 -0.55574155 -0.0051012607 -1.0530423
309 1.4878733 -0.26454854 0.27496693 0.9881679 0.23408449 -0.92858815 0.7902598 -0.26544794 0.13992158 0.055172123 0.584035 -0.030867202 -0.16402443 -0.18017863
6089 -0.017784797 0.6935736 -0.3016283 -0.3212766 -0.4022149 0.52134335 1.0602462 -1.9672077 -0.30660462 -1.3561677 0.17003939 0.604437 0.7515107 -0.33994505
3578 -0.2620487 -1.2217282 0.27361915 0.9297305 -0.06337906 -0.7908705 0.9540596 -0.56200963 -0.31474698 0.32600853 0.20465401 1.0736727 0.6285475 -0.3246001
198 0.9951137 -0.38384196 -0.32485083 1.5678962 -0.3625674 -0.53273135 0.94526494 -0.24078496 0.520251 -0.4203065 -0.47585547 -0.42965773 0.6070306 -0.48182437
6111 -0.004713963 0.014139009 -0.21454006 -0.24291144 -0.55445063 0.49483803 0.76214457 -1.8807751 -0.52007407 -1.5607356 0.49433544 0.47988757 0.49282548 0.5800422
1967 1.0281895 -0.72766554 0.55442154 0.49824384 -0.23443681 -1.1506582 0.8399403 -0.2213646 -0.63477665 0.52156615 0.44507238 0.23437189 0.37086537 -0.51444453
6097 0.45683998 -0.35139447 0.25857022 0.10221663 -0.30354708 1.3556148 0.6789154 -1.4848871 -0.15162921 -1.4609673 1.1110818 -0.49320102 0.5585707 0.1493085
6094 0.730805 0.5036339 0.38223076 -0.6265989 -0.79824996 0.5215427 0.7474924 -1.7097505 -0.9168631 -1.4307252 0.5713946 -0.6711363 0.5602442 0.7868747
481 0.40465263 -0.35925245 0.6003645 0.3951607 -0.042930532 -0.6862299 1.4808259 0.27855828 -0.2366594 -0.27583238 0.17287704 0.7214409 0.19117962 -0.5563931
4385 0.5000727 -0.48615238 0.23638314 0.6885857 -1.0910046 -1.577268 0.53873557 -0.44848165 -0.31405202 -0.240829 0.8130708 0.1456761 -0.2123872 -0.8850945
3219 0.558704 -0.91943204 1.3550116 0.5170386 -0.9357665 -0.8426685 1.1648985 -0.110364705 0.17785779 0.5904781 -0.13159841 -0.06999056 0.5717716 0.13539815
3345 0.15493262 -0.30243593 0.7059488 0.60179496 -0.36893776 -1.3016809 0.9252265 -0.15482199 0.316795 -0.42126086 -0.074442215 0.48315153 0.44362208 -0.5713361
2397 0.6803569 -0.91703755 0.6686633 0.30227235 0.14683893 -1.3338327 0.7952514 -0.40905586 0.64970917 0.05584394 -0.51277524 0.48465738 0.6971817 -0.43541124
6066 2.0546873 -0.8801892 0.20896308 -0.74393106 -1.370478 1.1235838 0.27169776 -0.5033668 0.16928676 -1.586691 0.38546962 0.59515333 1.0582572 0.28435972
540 0.6825906 -0.80670536 0.5616302 0.8945078 0.3435049 -1.1038743 0.15841658 -0.56657153 0.49025503 0.10298622 -0.07559242 -0.29060924 0.82488203 -0.47674823
4515 -0.060936768 -0.7196202 0.755261 0.6974972 -0.013807121 -1.2979853 0.849109 -0.028030323 -0.043930158 -0.5738552 -0.11305029 0.7522599 0.64530855 -0.2974038
6088 0.52229655 -0.70820653 -0.13745731 -0.49025327 -0.20266736 0.6099457 0.2685027 -1.5817416 -0.08903778 -1.2812215 0.8347752 -0.3474153 0.86632127 0.6667726
2485 0.8990557 -0.22636813 1.3328884 0.658136 0.60747594 -0.64097905 0.57171094 -0.94370633 -0.990458 0.33708885 -0.64706844 0.6026403 0.49806175 -0.7991194
6077 0.39828393 -0.066699825 0.39829183 -0.7386691 -0.16923009 1.212138 1.1315931 -1.5906303 -0.3989248 -0.8834922 0.6681545 -0.051430896 0.3307187 -0.43319854
6069 0.46130696 -0.72408384 0.66255456 -0.38548186 0.30076513 0.5648053 -0.20103893 -1.3008072 0.3317298 -2.1425896 -0.20677446 -0.20390719 1.269739 0.45006177
6052 0.6815092 -0.4830848 -0.15649155 -0.6935409 -0.03336701 0.7322129 0.50818145 -1.6258768 -0.16047977 -1.2860596 0.7251108 -0.30669302 0.87377954 0.40923825
6277 0.497339 -0.25782576 -0.6026215 -0.66163987 -0.0042696875 0.33236167 0.4528905 -1.8427439 -0.3138274 -1.0348865 0.14806153 -0.36690784 1.0681956 0.32634687
4779 0.78505784 -0.32471746 2.1384456 0.43422514 -0.64903563 -0.7727274 -0.45470184 -1.3093796 -1.164031 -0.170929 -0.51951426 0.6150551 0.363331 -0.54458994
1053 1.0182476 -0.4531971 0.5135876 1.3305174 0.3954404 -0.96809477 0.70553005 -0.49557468 0.43912432 0.018307963 0.02619531 -0.46898153 0.2913195 -0.09876159
4402 -0.04891974 -1.4349233 0.68969 0.9350548 0.098747686 -0.7945253 0.8548783 -0.19796221 0.092300475 -0.09994544 0.4147943 1.3756976 0.4321211 0.07161505
6155 0.41692019 -0.11009073 -0.5696359 -0.15253817 -0.14070652 0.63263553 0.5680609 -1.9433604 -1.0400679 -1.5602475 0.02160187 -0.23095164 0.66081357 -0.09641858
1052 0.3313396 -0.82789695 0.30986175 0.3056718 -0.3170316 -0.99811524 1.0477902 -0.09497387 -0.00064107357 -0.19948938 -0.33996552 0.31694916 0.25234613 -0.5621304
3699 -0.05237941 -0.68218946 0.832919 0.9261048 -0.59853125 -0.9482201 0.5580664 -0.17006123 0.51199627 0.14543979 0.27446938 0.14539912 1.0972625 0.13662845
3099 0.38685843 -0.97678465 0.55821973 0.13338046 -0.6456833 -1.197654 1.0915356 -0.1880182 0.3586851 0.5026435 0.1675312 -0.27227008 0.42870665 0.30003354
1366 0.98865366 -0.6077404 0.24200366 0.27945155 0.46274963 -1.2556514 0.5004982 -0.5393996 0.18171115 0.4040263 0.5058134 -0.36440906 0.41618645 -0.43781546
270 1.3623791 0.12376229 0.25510693 1.317025 0.14465962 -0.41344956 1.1898481 0.15965194 -0.05852864 -0.31778184 0.12527087 -0.09910572 0.25206053 -0.49950048
6098 0.80247426 -0.41084576 0.2182159 -0.35839617 0.36332414 1.2802407 0.8892564 -1.1922768 -0.02055472 -1.0221925 1.3407215 0.0380651 0.698306 0.2694915
3465 0.23782158 -0.6302985 1.0910848 0.6769217 -0.1178144 -0.99364144 0.7186392 -0.0638718 0.32256225 0.00837006 0.26020327 0.2518507 0.76912755 -0.42428386
4365 0.11768413 -0.62229395 0.8296572 0.7384452 -0.13564505 -1.4433047 0.67198527 -0.14150049 0.38070723 -0.5772798 0.06829 0.5329154 0.3214003 -0.12180985
6118 0.53585404 -0.14376076 -0.24651787 -0.5992223 -0.28511074 0.6283135 0.5128074 -1.8140017 0.21720056 -1.2762227 0.30234542 0.19071554 0.9776753 0.4794215
6058 0.6710667 -0.5552847 -0.13846612 0.29051092 0.11176816 0.874575 0.1783567 -1.4840583 -0.65922177 -1.6148822 0.8632131 -0.058581322 0.4148019 0.40323874
6161 0.83624154 -0.5945546 0.013347278 -1.0147289 -0.14505729 0.5748528 0.6209531 -1.4113353 -0.015366967 -1.1900345 0.84486896 -0.4589197 0.55503285 0.52033746
6067 0.36440337 -0.6563366 -0.53601694 -0.35127372 -0.16172144 0.6274976 0.769268 -1.1811941 -0.23986222 -1.4228054 1.3020918 -0.021808434 0.8269782 0.6606771
1612 0.40820646 -0.7876834 1.0308188 0.73251295 0.10521371 -1.0029922 0.7003148 -0.29954848 0.12578073 0.23770793 0.49441886 0.5323161 0.34305352 -0.16318268
6073 1.8158748 -0.54906726 -0.14827512 -0.18729044 -1.1645848 0.97230977 0.25313643 -0.7029783 -0.7579958 -1.6089473 0.684142 -0.11712592 0.79369026 0.7457081
144 0.7714829 -0.6175528 -0.15224433 1.4288162 -0.22998086 -0.69194204 1.1082668 -0.04713613 0.44237998 -0.24747936 0.056592103 -1.2106379 0.6371021 -0.3787215
6121 0.22974955 -0.4011998 0.45909727 -0.06274514 0.0144191785 0.6744146 0.5454336 -1.2509631 0.18708262 -1.4585669 1.694758 -0.26463816 0.30709162 0.72925603
6102 0.77667576 -0.13204563 -0.382727 -1.080134 -0.24576542 0.5946465 1.1185071 -1.3253769 -0.058147576 -0.91859436 1.0787995 -0.37100837 0.61920863 0.0944738
6120 0.7441951 -0.44826397 0.68251985 -0.53717047 -0.0951468 1.2203261 0.61160904 -1.244725 -0.13065326 -0.82603765 1.4374555 -0.331894 0.5156781 0.1467578
6147 0.4211083 -0.60679644 0.32755238 -0.8894889 -0.48933268 0.37624258 0.25872016 -1.5518434 -0.4289665 -0.961484 1.072878 -0.17489593 0.42435825 0.5997732
1714 1.114085 -0.52570826 0.2786039 0.29488918 0.19715801 -1.2701955 0.56284255 -0.36975408 -0.06173735 0.49016604 0.61841136 0.02744903 0.5890198 -0.5293523
6082 0.24895535 -0.08347797 0.031045547 -0.8973827 -0.61644477 0.7116253 0.78372246 -1.9208399 -0.44596606 -0.8792726 0.42361438 -0.47191867 0.9883017 0.17686139
3640 0.5107951 -0.36512813 0.10981746 0.11297247 -0.76110506 -1.8283002 0.8170553 -0.2040856 -0.08973245 -0.507896 0.9032113 -0.028948857 -0.07657766 -1.119805
6087 0.8389282 -0.42025924 0.39699408 -0.016459297 0.76704544 1.3773966 0.6115084 -1.4286044 -0.30915037 -1.2374799 0.8256972 -0.0640773 0.5294289 0.095173545
3804 0.098853 -0.3306617 0.9165902 0.24335176 0.0041785724 -1.1886991 1.3402915 0.040156327 -0.058109693 -0.3405195 -0.27238718 0.39208674 0.6108521 -0.57264036
1185 1.5562863 -0.019919498 0.40722036 0.40751958 -0.6479198 -1.0429966 1.1788673 -0.7997222 0.13112469 0.82875836 0.78093445 0.2928275 -0.5027799 -0.11577832
6071 -0.11915971 -0.6080087 -0.09070059 -1.0441785 -0.28602168 0.23642492 0.5047926 -1.5798339 -0.05746133 -1.0993601 0.7376785 -0.49939606 1.3431743 0.56024927
6059 0.46441305 0.37173724 -0.3217214 -0.44542542 -0.56054115 0.8419586 1.1805153 -1.4146512 0.13967584 -1.7766532 -0.086379975 0.061056215 1.1463425 0.21181788
6195 0.69704014 -0.70888424 -0.113711976 -0.6571757 -0.30990374 0.3380293 -0.0083280215 -1.4070045 0.006446593 -1.6430367 0.8438579 0.20908964 0.8666079 0.68693906
6091 0.29645988 -0.84121126 0.5234688 -0.09396417 0.6807945 0.8721927 0.39068443 -1.2127767 0.41110486 -2.1679182 -0.40566543 0.06458142 1.3450586 0.6834967
62 0.88433486 -0.55089223 0.016999265 0.7012787 -0.6822915 -0.87631744 0.9506952 -0.034026697 -0.055350497 -0.6007158 -0.21944866 -0.14894117 -0.17848949 -1.0991895
13557 0.38648486 -0.27351114 0.19236115 -0.08218906 -0.030089557 1.1859114 0.78111386 -1.5364953 -0.08774145 -1.6013434 -0.35578352 0.6454864 0.79277533 0.46301872
6108 0.7787843 -0.44393307 -0.025372202 -0.4315687 0.26105112 0.8553029 0.6649362 -1.4309524 -0.20167573 -1.3241097 1.2834086 -0.27243662 0.19314867 -0.0016821462
3429 -0.0076833162 -0.43201274 1.1799344 0.44450486 -0.1499758 -1.1887927 1.1531581 0.09520023 0.14341876 -0.6092931 -0.14121866 0.5334938 0.30772576 -0.19530012
29 1.1208999 -0.6921451 -0.13090827 1.3959125 -0.59483945 -0.7141757 0.8469988 -0.1460931 -0.1262575 -0.31120422 -0.2764178 0.038600102 0.23887855 -0.8788739
6131 0.23835331 -0.41542554 0.7128419 -0.1047289 -0.09999497 1.0245634 0.55449754 -1.3680241 0.33729 -1.9399915 -0.42746848 -0.17511356 1.1559545 0.9747845
6178 0.53310746 -0.40098467 0.053404648 -0.16660681 0.811254 0.89528596 0.6638439 -1.1975912 -0.40999323 -1.4417198 1.1979787 0.072489105 0.5832115 0.19635035
96 0.3483485 -0.90228564 0.5738798 0.68092436 -0.39085272 -1.3406035 1.4392505 -0.058683783 -0.3690775 -0.18558374 -0.51713574 0.16374096 0.23226276 -0.32211015
6114 -0.005397761 0.37371647 -0.40902588 -0.39112025 -0.65611786 0.5229221 1.1699528 -1.7537106 0.04498742 -1.6573266 0.08104216 -0.2935318 0.648843 -0.333218
6110 0.3881297 -0.17172006 0.45849925 -0.24193999 0.3380431 1.0862693 0.5950527 -1.4270742 -0.070194736 -1.4267336 1.1493722 -0.031554252 0.5356981 -0.14947824
2351 1.7308104 0.80854696 1.0602511 0.56498 0.2696433 -1.04224 0.4073606 0.17095624 -0.35074463 -0.3244128 0.27859342 -0.21062802 0.8679594 0.1630329
664 0.5486341 -0.3651404 0.36009714 1.2234833 -0.2562811 -1.1708419 0.5963006 -0.43580717 0.65313065 -0.065482706 0.5944454 -0.06566956 0.14179632 -0.040495697
2658 1.0428641 0.0337471 0.80902994 0.03302932 -0.036662173 -0.7547529 1.3647925 0.054983906 -0.39140645 0.1327928 -0.18520947 -0.037255205 0.22070909 -0.45111483
3903 0.21912499 -0.47015837 1.1138731 0.38878667 -0.2795342 -1.0259275 0.3804101 -0.1206121 -0.075863056 -0.35173705 0.11890768 0.71087873 0.4703528 -0.54515314
113 1.3285354 -0.33609942 0.66045827 1.3123014 -0.4618436 -0.9498366 0.46340293 -0.2807592 0.525384 -0.33131886 -0.35926566 -0.14669453 0.34869364 -0.67062557
6068 0.08286348 -0.2829309 0.037613355 -0.44896796 -0.36615992 0.7589179 0.56147957 -2.0390606 0.592103 -1.2247934 0.66217834 0.70219797 0.41645512 -0.109829284
1620 0.8851685 -1.062796 0.35773346 0.2284938 -0.08684718 -0.9741235 0.91476816 -0.04814535 -0.018635247 0.6808287 0.682589 -0.21819101 0.4816175 0.052256044
3669 0.2997114 -0.60897946 1.5088739 0.6650028 -0.4223108 -0.8822718 0.13712776 -0.40860027 0.8761293 0.36747146 0.46912014 0.021308426 1.0471209 0.2311777
6103 0.30067825 -0.95877844 0.49763855 -0.7011364 0.44275716 0.6740809 0.12977387 -1.2862219 0.20393024 -1.53223 -0.051659632 -0.19526948 1.5768054 0.671627
4499 0.06168192 -0.8490464 0.8170609 0.722601 0.13418621 -1.1794534 0.9413698 -0.055314522 0.1459684 -0.539037 -0.4105696 0.78949845 0.59561086 -0.09785884
6160 0.016729482 0.13339736 0.44308892 -0.4207824 -0.32529014 0.90525466 0.49917006 -1.6141756 0.13697636 -1.1907309 0.65041703 -0.7119918 1.3798171 0.07857033
3040 -0.055683877 -0.15680185 1.2011501 0.6178376 0.060025375 -1.3084056 0.7569672 -0.2306137 0.19731015 -0.641633 -0.2579193 0.028208386 0.47031713 -0.58915055
6086 0.28631932 -0.3152821 0.6039744 -0.0052254964 -0.06656956 1.050652 0.17134869 -1.1510497 0.095248744 -1.7336462 1.481689 -0.34445328 0.76660174 -0.41795573
1764 0.69874305 -0.3015006 1.0315019 0.14645743 -0.17397438 -1.65424 0.9101986 -0.41486067 0.21966739 -0.006925916 -0.19788608 0.06924973 0.061910696 0.10956785
115 0.5482992 -0.5370017 0.16057646 0.58471787 -1.2486609 -1.6913027 0.81015193 -0.28048635 -0.23449922 -0.47600633 0.24771254 -0.5851385 -0.21214394 -0.6677732
4554 -0.48725393 -0.9002386 0.39483753 1.0392528 0.03292841 -1.0290754 0.84885454 -0.9559656 0.1841455 -0.14422789 -0.27146038 1.1770842 0.25122526 0.16235948
5472 -0.22296819 -0.2036844 0.9777445 0.064569496 -0.18184566 -1.3691849 0.99326754 0.07763624 0.34603286 -0.6089328 0.044882856 0.03655 0.84172523 -0.70899063
1656 1.070808 -0.4720452 0.677816 0.42094874 -0.045806795 -1.377245 0.9758595 -0.21258281 -0.02537882 0.005663597 0.048469264 0.19676496 0.07303595 -0.5721417
1921 1.1352129 -0.4897552 0.8741862 0.92011124 0.5953057 -1.2279274 1.1095024 -0.5907693 -0.97428626 0.42020136 -0.25107765 0.04896693 0.2671485 -0.3712005
2318 0.7744758 -0.44383457 0.32335976 0.26443875 0.017401837 -0.99339634 1.1877283 -0.18612064 0.44413868 0.4529845 0.336285 0.4305375 0.62697285 -0.37273705
1815 0.9272513 -0.17445119 -0.018708562 0.4734381 -0.06291101 -0.8760873 1.4359902 0.27470767 -0.5448927 0.085717954 0.08332855 0.89001673 0.961781 -0.04792724
2017 1.0515656 0.13199511 0.4731347 0.2871964 0.08277451 -0.7754751 1.2472923 0.13067128 -0.8557151 0.17717145 -0.021842174 0.36135274 0.67748237 -0.29655966
2214 1.0320292 -0.54265636 0.6257275 0.16761671 0.11295462 -1.2652122 0.8870796 -0.34504995 0.05988665 0.49156266 0.16102903 0.09630263 0.6780886 -0.7957612
178 0.74613476 -0.73066866 0.32741567 0.9452637 0.17064482 -0.72370666 0.9418925 -0.16535477 0.7678562 -0.048348743 0.54983866 -0.69444025 0.1363689 -0.46402454
2252 0.75897497 -0.7188886 1.1789715 0.941532 -0.118988976 -1.4367245 0.9886064 -0.09514915 -0.7609539 -0.15786606 -0.5512953 0.1346928 0.5056175 -0.46713325
6138 0.25987938 -0.7003153 -0.0032083346 -0.6347126 -0.26130575 0.45013303 -0.025692193 -1.5881455 0.07738537 -1.2229848 0.8434218 -0.20693192 1.2237405 0.44546705
6104 0.29710686 0.12895232 -0.058198303 -0.33923772 -0.38039678 0.699514 0.68415135 -1.7992133 -0.026349872 -2.0531402 0.03804083 0.9763683 0.58048767 -0.021602586
363 0.9710618 -0.8899497 0.7286359 0.5316229 -0.25904733 -0.85207725 0.04791477 -0.26110575 0.44605756 0.35855535 0.021277769 0.093594834 0.88842607 0.009528381
2498 0.2513513 -0.4542981 0.76415265 0.28945822 -0.12121918 -0.8463575 1.125233 -0.1584544 -0.022300424 0.075295396 0.07904773 0.18348657 0.46889997 -0.9573456
3714 0.3744836 -0.6196488 1.0558356 0.5744944 0.05230386 -1.1085972 1.3826156 0.13737632 0.15517682 -0.12756804 -0.11764486 0.5653002 0.6372258 -0.29935184
149 1.2269723 -0.71084464 0.38628533 0.8589102 -0.15563338 -0.97433317 0.7073938 -0.112786196 0.027918458 -0.37938556 -0.18444715 -0.64506304 -0.09647292 -0.50580454
6060 0.8449163 0.28986943 -0.0823332 -0.10143874 -0.43218556 0.033616126 -0.20638262 -1.8715837 0.6466709 -1.817177 0.77191615 -0.27439138 0.9919557 1.0579014
6123 0.700695 -0.3851093 0.69030553 -0.32152444 0.48094788 1.255578 0.79977304 -1.3717884 -0.16207522 -1.4494926 1.0819136 0.030543953 0.12219986 0.022275196
36 0.98433656 -1.0059599 0.08877278 1.5298982 -0.96530616 -0.91749406 0.8050052 -0.5455751 -0.87157524 0.50083315 0.2603397 -1.0370115 0.2124619 -0.030757667
1245 0.5322386 -0.20279074 0.186867 0.5997549 0.5329663 -1.6059886 1.0690793 -0.87643516 -0.08012475 0.34338808 0.17581598 -0.19161797 0.08422508 0.34996212
4315 1.2673284 0.15330455 1.4379046 0.54085505 -1.116379 -1.0233923 0.8763266 -0.58440953 0.5189489 0.1241639 0.46466762 0.6779755 -0.62084454 -0.08356861
1529 0.87151074 -0.61060077 0.75339526 0.82889485 0.15844867 -1.5671202 0.5552315 -0.41751242 -0.30157238 0.18205088 0.22490658 0.007680054 0.44771257 -0.30805087
6136 0.67790645 0.58911 -0.07456888 -0.5892726 -0.36055544 0.94309324 1.0061595 -1.8961412 -0.11590349 -1.377835 0.4260769 -0.00818344 0.9534399 0.0878798
6829 0.49540338 -0.23646024 0.90812564 -0.2661588 0.17673555 0.78110844 0.04205888 -1.7766011 0.60837036 -2.0477002 -0.028172439 0.11382855 0.928274 0.7052811
6204 0.07659223 -0.47861207 0.570297 -0.030187985 -0.6028791 0.8712797 -0.009955526 -1.9982764 -0.103984855 -1.4057119 0.7701506 -0.04665742 0.39829788 0.19758391
6190 0.8150935 -0.311973 -0.25748372 -0.46141884 0.21455477 0.6367032 0.47230446 -1.5150136 -0.07054061 -1.4498276 0.784078 0.015245945 0.89301187 0.7690463
732 0.39986187 -0.28945625 0.21254309 0.87836707 0.50175035 -0.83237416 1.397796 -0.3290331 1.159082 0.059857283 0.13068064 -0.5831816 0.80942684 -0.5129802
6260 0.7275201 -0.36004546 0.042046804 -1.3373188 -0.29310906 0.53733975 0.6814484 -1.381808 -0.29202434 -0.91617215 0.40689567 -0.7379583 1.0993598 0.23608856
4458 0.8051828 -0.09545796 0.015249197 0.75041735 0.05450655 -0.7401414 1.4328014 0.50415087 -0.6668446 -0.21797386 0.3394273 1.2302587 1.3447473 0.013716901
6126 0.87824285 -0.06582694 -0.019469457 -0.8006106 -0.7738457 0.091407 0.8756643 -1.770591 0.6186013 -1.7973795 -0.19854775 -0.24079958 -0.35900447 0.5255382
3527 1.1262219 -0.75063324 1.0971527 0.9534442 -0.4881959 -0.7520908 -0.5475029 -0.7868881 -0.6427 -0.2482642 -0.58145833 0.8792537 0.54117113 -0.59473467
3642 0.26721743 -1.0434202 1.0176716 0.56570834 -0.1563664 -0.5467676 1.1017128 -0.087888755 -0.56719494 0.16852608 0.39955863 0.8560232 -0.087975435 -0.22923547
1948 1.0522258 -0.5095148 -0.051895887 0.26421088 -0.51675636 -1.4195448 1.0845926 -0.54943496 -0.41353983 0.5208001 0.33264834 -0.072851196 -0.2554503 0.205395
634 1.1694814 0.13260236 0.4539321 1.8990823 -0.24657096 -0.31366065 1.1517981 -0.17166114 0.15850778 -0.14093056 0.38827917 -0.53879595 0.16224135 -0.37450778
6249 0.43827695 -0.6247886 0.112928495 -0.04967308 -0.37254137 0.62256515 0.12656401 -1.6295826 -0.403707 -1.3109907 1.2206527 0.11230553 0.22584805 0.65846694
6231 0.45822448 0.18896416 -0.66917175 -0.09670573 -0.59217566 0.5188241 0.44722033 -2.0494766 -0.53665465 -1.9156845 0.07647515 -0.5856252 0.66562015 -0.8851763
5363 0.13035338 -0.47170204 0.16438146 0.033751674 -0.6652903 -1.5377618 0.8135955 -0.13369003 0.21988901 -0.30115256 -0.11453506 0.8115769 1.4507906 -1.1695256
6107 0.65884954 0.5661637 -0.4990776 -0.6687222 -0.1815142 0.2868277 0.96423674 -1.1509244 -0.22967392 -1.6416432 1.3095287 -0.4602549 0.7346187 -0.26345068
6064 0.5789106 -0.024598785 0.37707287 -0.028037876 -0.009997375 1.1291529 0.6980419 -1.1668466 0.21608797 -1.2059228 1.6928653 0.21843638 0.63362956 0.29850507
4038 -0.19659744 -0.86247224 0.68758076 0.9100692 0.33485675 -0.61101985 0.964916 -0.21948834 0.1423759 0.053487167 0.5501401 0.86356455 0.60120445 -0.33497152
522 1.5277512 -0.063272215 0.5507129 0.70129126 -0.06713516 -1.1126616 0.54084045 -0.22313447 0.47398207 -0.112557866 -0.17990334 -0.6554529 0.48930457 -0.36746204
6293 0.620562 -0.032531463 0.33776063 0.017208258 0.27548066 1.1403588 0.5944585 -1.2848788 -0.10689474 -1.5365132 1.0233736 0.29258782 0.67615664 0.30874133
256 0.58831847 -0.8808464 0.047742322 1.5099312 -0.590431 -0.38481686 0.8288753 -0.08995204 0.64031523 0.21990827 0.48178405 -0.4115329 0.8217248 -0.4011269
4304 0.40791383 -0.59434354 0.8447246 0.40304804 0.19972274 -1.1112263 0.7276024 -0.18531744 0.014933525 -0.35945478 -0.02806182 0.8988264 0.35868803 -0.7963668
6085 0.5371652 -0.3144939 0.29923564 -0.34438646 -0.45246008 0.11221553 -0.20410627 -1.9299191 0.08505997 -1.5613004 0.18136281 -0.15964076 0.38514912 0.9558438
2262 0.1689318 -0.47331965 0.980681 0.70639557 -0.28254998 -0.88861144 1.0600097 -0.3525436 -0.27302572 0.65086484 0.33583838 0.12401604 0.7391271 -0.164332
4531 0.66651726 0.010825116 0.25054112 0.55081624 -0.09463464 -0.89401203 1.1890694 0.20428722 -0.6957712 -0.1440905 0.14284466 1.3180488 0.9978832 0.2561036
6141 0.51978934 -0.36993918 0.038232382 -0.54022527 -0.07805453 0.97174585 0.9344912 -1.2750344 -0.39410985 -1.1943598 1.3488731 0.121599525 0.6650303 0.47005713
5508 0.15012679 -0.5700788 0.38184363 0.27230272 -0.6559699 -1.7614696 0.5299693 -0.14359435 -0.3495986 -0.61192715 0.70794106 0.2959476 0.13147765 -0.8964888
6184 0.5673261 -0.78727823 -0.41589388 0.15747964 -0.12725188 0.86526704 0.57925296 -1.37782 -0.68567896 -1.3800348 0.29979214 -0.35440752 0.79881227 1.1661816
1512 0.6630721 -0.46393895 0.16511603 0.21880329 -0.060616523 -1.7324342 0.42907572 -0.5470112 -0.28557983 -0.079459704 0.8303558 -0.09531071 -0.028747402 -0.87201804
1094 1.0470091 -0.5176993 1.1784588 1.3993859 0.37420446 -0.7546211 0.89070255 -0.49166703 0.7099102 -0.06962398 -0.10929353 -0.5423571 -0.117169 0.18481961
6166 0.5095252 -0.8650975 0.350421 -1.160825 -0.38191226 0.35177648 0.3827455 -1.6847863 -0.9160477 -1.5674396 0.57447356 0.13464093 0.39843112 0.81758994
4205 0.17643954 -1.1280403 0.5772878 0.75171024 -0.5549552 -1.501875 1.1877993 0.25980484 -0.9473362 -0.6068896 0.58001757 -0.4520096 0.38110384 -1.5610212
6151 0.40514034 -0.31609535 1.0242586 -1.4677268 -0.21811132 0.49146864 0.24973147 -1.7807267 -0.5558813 -1.5706552 0.7073684 0.08510362 0.49526978 -0.15748262
6157 0.6996392 -0.22508527 -0.37499273 -0.7657613 -0.44278923 0.9077049 1.0151037 -1.7148658 -0.13251719 -1.3469069 -0.14535168 -0.19659023 0.97510254 0.26810268
132 1.1279919 -1.1235694 0.14233074 1.0248042 -0.44770968 -0.5921959 0.564522 0.10064193 0.38163218 -0.46692798 -0.29415235 -0.8178274 0.45878753 -0.77616566
5506 0.24584629 -0.5091495 0.2742131 0.3943119 -0.902849 -1.8419857 0.76064926 -0.36655444 -0.380983 -0.3244956 0.90167034 0.03733018 -0.006755166 -1.099747
1846 1.6047246 -1.1659049 0.12766239 0.44111094 -0.5018026 -1.5364339 0.35930043 -0.363945 -0.26607522 0.19643688 0.47779337 0.048152983 -0.18222338 -0.1274666
1348 0.950486 -0.5683689 0.35742542 0.88942176 0.95549774 -1.1018474 0.41216823 -0.737472 0.1843577 -0.02749667 0.06514893 -0.10066506 0.065135255 -0.12482691
6113 -0.15940489 -0.47482798 -0.03615016 -1.0641358 -0.6600578 0.8176204 0.8593203 -1.3449942 -0.23915254 -1.5361176 0.117975436 -0.051663842 1.577993 -0.46484166
6250 0.84505874 -0.3131461 0.08085127 0.08117681 0.5168866 0.9629074 0.364641 -1.2030754 -0.44952422 -1.5841768 1.0998302 0.19648342 0.7453268 0.5777817
6286 0.322671 -0.7493073 0.7992738 -0.0062701413 0.5249586 0.88005215 0.034640122 -1.3798375 0.33151615 -1.9123396 -0.4057498 0.108748026 1.5440627 0.79103184
6202 0.64517003 -0.6584212 0.25892386 -0.7852096 -0.0077778813 0.8287751 0.49592358 -1.3782078 0.0475157 -1.2762834 1.2812896 -0.22500154 0.6034192 0.19360852
6145 0.6272713 0.16180852 -0.6735375 -0.44795057 -0.16846891 0.5806001 0.62373644 -1.8236814 -0.6600508 -0.7102083 0.4519874 -0.3087602 1.4222972 0.41258267
6128 0.43602413 -0.23912686 0.20244296 -0.15212339 -0.2207167 0.79684377 0.52588254 -1.4069555 -0.3029332 -1.2851776 1.3067724 -0.44976962 0.4588958 0.48634475
6127 0.7793517 -0.6480168 0.095949724 -0.7286662 -0.19406195 0.63486594 0.3024789 -1.5935607 -0.1793923 -1.1568542 0.6348141 -0.45258564 0.68782175 0.6651238
1487 1.1165606 -0.78578204 0.25316095 0.95730406 0.35039935 -1.3393309 0.63788 -0.25477535 -0.23412426 0.11884396 0.8682133 -0.18117616 0.12369943 -0.35877416
6146 0.84280837 -0.17142317 0.63540757 -0.01739718 0.7452658 1.2448747 0.638316 -1.1359885 -0.48674685 -1.5282112 1.1532823 0.044918396 0.37644997 0.08617032
425 1.1532608 -0.79897934 0.1704241 0.6148996 0.43510377 -0.9429973 0.7945259 -0.44097242 0.11868508 0.075025305 0.04483572 -0.31203607 -0.045674365 -0.583369
6061 0.018414361 -0.6695972 0.018393673 0.35859936 -0.59934175 0.97596276 0.735014 -1.5930572 -0.38862365 -1.4863863 1.1764193 -0.25683346 0.4576501 1.1353354
2328 0.87444025 -0.54407173 0.79928064 0.47000918 -0.28143197 -1.1117852 1.3229276 -0.49086958 0.1817225 0.90045 -0.10003691 0.15442304 0.8137604 -0.44018227
1502 0.8273926 -0.40776625 0.8561509 0.5472564 0.1223351 -1.0365741 0.56941795 -0.45659736 -0.12101088 0.38572958 0.06094406 0.189222 0.51703954 -0.33033898
2141 0.9241406 -0.23629144 0.5155184 1.2428262 -0.054502405 -1.4732805 1.407155 -0.8176834 -0.5939889 0.3971469 -0.4391263 0.038796157 -0.025764484 0.35298276
3545 0.3504189 -0.5998352 1.1062754 0.7159556 -0.28634533 -0.88969386 0.8257384 0.022710841 0.6996081 0.028506085 0.54067475 0.39256734 0.7393187 -0.58169097
1499 0.92855024 -0.991783 0.72002804 0.42573577 0.41691998 -1.6115115 0.65564996 -0.47016335 -0.015051949 0.15122698 0.15082227 0.19195338 0.13098533 -0.27009344
3653 0.42772025 -0.7971289 1.6745876 0.9001647 -0.790571 -1.0238491 0.845517 0.11487807 -0.006795219 0.3301387 0.41723296 -0.3946414 0.75287396 0.22716747
1318 1.1344967 0.15627402 0.778129 -0.05546005 -0.35451135 -0.86257106 1.2571584 0.26488668 -0.16185172 -0.10546639 0.03615444 -0.019189427 0.16106734 -0.49158257
3792 1.1191179 0.17076693 0.15496592 0.5810434 -0.13054945 -0.9692993 1.4569212 0.46124953 -0.9708459 -0.14766183 0.22694956 1.0681922 1.1645492 0.21507595
3260 0.72306997 -0.851917 1.507446 0.3087368 -0.62771803 -0.66060877 -0.07078843 -1.3004915 -0.8454085 0.08401306 -0.61177456 0.74694467 0.07908562 -1.2597494
635 1.3738996 -0.3882629 0.6235592 0.36494222 0.7742305 -1.2674326 0.5762096 -0.5991518 0.20420998 -0.20859379 -0.3271283 -0.28148153 0.23310469 -1.2016141
6168 0.6483207 -0.3994413 0.47647226 -0.21686845 0.47483602 1.3564318 0.7228793 -1.3943504 0.06705625 -1.1385994 0.8853386 -0.15612549 0.6589728 0.22353652
2763 0.42663783 -0.53191626 0.9184473 0.30951542 -0.21554986 -0.5706433 0.9297047 -0.55705714 -0.39057827 0.87290776 -0.1364952 0.21436375 0.8392435 -0.4179535
6254 0.74569005 -0.23611718 0.06644208 -0.36395022 0.22790562 0.7770209 0.858965 -1.570206 -0.061485447 -1.7331778 0.74934816 0.2295303 -0.015494533 0.5660678
6140 0.6810678 -0.77657235 -0.112368576 -0.8354639 -0.05232519 0.51575094 0.36467865 -1.4995942 0.3734806 -1.3575928 0.9061397 -0.4390609 0.68090564 0.33332947
1670 1.2510815 -0.14578812 0.90496963 0.4028601 -0.05341265 -1.1658401 0.7776594 -0.46841174 -0.1549352 0.33174846 0.5266672 0.7023614 -0.15595734 -0.3971335
6112 -0.005620741 -0.80533135 -0.1183187 -0.3920089 -0.33624223 0.42254776 0.515394 -1.885174 0.49644336 -1.037777 0.99779 -0.29581955 0.4214567 0.80066067
3445 1.1156597 -0.27283898 1.2039199 0.56163967 -1.1982594 -0.76108855 1.2160484 -0.1696274 0.38714802 0.36940524 0.49130672 0.2501937 -0.15490504 -0.6935319
3756 1.3305424 0.14572446 0.4010086 0.32114258 -0.15811017 -0.9030054 1.3673644 0.46214354 -0.7579611 -0.07432359 0.23147967 0.44259506 0.47575966 -0.058136586
1508 0.71744937 -0.93144137 1.0322319 1.075895 0.028442077 -1.1157268 0.6542312 0.11298969 0.17663197 -0.011410269 0.41567189 -0.0459825 0.6544647 -0.1400826
6261 0.6687661 -0.4001372 -0.019441124 -1.4399872 -0.68841743 0.115538545 0.8177252 -1.5572703 0.4258809 -1.3269159 0.43608055 -0.76922566 0.3755635 0.29798883
1562 0.90992844 -1.0870414 0.29034394 1.3971481 0.28543502 -1.0100557 0.42968044 -0.6545897 -0.42226318 0.392173 0.4592388 -0.65072626 0.2387735 0.21054417
6265 0.4662989 -0.24665195 0.6580916 -1.0271796 -0.00061906694 0.023577068 0.51059574 -1.6309748 -0.7354481 -1.4202055 0.3473465 -0.018809592 0.25570452 1.4283633
6137 0.32238328 -0.26327112 0.060947314 -0.6833536 -0.74280024 1.0732657 1.0622201 -1.9878552 -0.94352114 -0.78787094 0.16890809 -0.89742213 0.8805288 0.21989836
33 0.08591795 -0.6869065 0.41844895 0.83846927 -0.11443451 -1.1854559 1.0784014 0.013785595 0.30683082 -0.45600408 -0.18894285 0.18058375 0.69860023 -0.6899337
4925 -0.2666815 -0.26450503 0.35155824 0.44689152 -0.32389227 -1.721434 1.3104098 -0.16978492 0.19591749 -0.59903914 0.63502246 0.36244568 0.27052695 -0.95344204
2728 0.7456079 -0.5281104 1.38678 0.28063026 0.17852265 -1.1413822 0.817776 -0.4249364 0.021706652 0.38286138 -0.43010947 0.13747728 0.7802319 -0.48208562
923 0.805247 0.027267763 0.44449574 1.2215049 0.43193847 -0.73135257 0.42518073 -0.9821677 0.925571 0.15026562 -0.114073455 -1.0460341 0.9226063 -0.4561903
6133 0.31828967 -0.10517763 0.87330216 -0.3429091 0.057857983 1.2523034 0.6849078 -1.2625834 -0.2492952 -0.9767665 1.4775038 -0.63244873 0.8186137 -0.07934154
2565 -0.32155266 -1.1097994 0.552048 0.97862154 0.18491793 -0.87136555 1.2072465 -0.77345777 -0.075105734 0.18334669 0.2544066 0.80762553 -0.1735186 -0.021330591
4683 0.95531815 0.12063852 0.022016013 0.67645484 -0.032421723 -1.0177505 1.3816229 0.30345622 -0.6727824 -0.0909158 0.27155906 1.1850368 1.2914428 0.31499067
6179 0.5610669 -0.31706205 0.13472617 -0.1732885 0.25396007 1.0248681 0.60942346 -1.4899501 -0.37442368 -1.3855175 1.093892 -0.09693572 0.4527952 0.11584345
2691 0.8288559 -0.010473318 1.1751863 0.40480456 0.6545575 -1.43494 0.4429551 0.32457787 -1.1875077 -0.5667481 0.30144316 -0.82394314 1.2088538 0.0015142611
6210 0.13897058 -0.47112933 -0.17236523 -0.4571854 -0.020956362 0.4620482 0.5148007 -1.5276121 -0.3137021 -1.4641623 1.1646228 0.23893434 0.7200383 0.5778308
3572 0.5369761 -0.7238789 -0.088515446 0.346025 -1.0905839 -1.6541622 0.7660571 -0.403389 -0.25490934 0.06555967 0.88184935 0.061960466 -0.04239139 -0.74914944
204 1.1441864 -0.57763964 0.6953392 1.1968095 0.2472168 -0.4160359 0.06834749 -0.5768936 -0.027694948 -0.17049587 0.016048543 0.12074022 0.087257035 -1.1567129
3000 0.11895591 -0.7515472 1.1354294 0.78705764 -0.26264292 -1.2617236 0.7036667 0.038138524 0.20312569 -0.20838737 0.15005878 0.2816747 0.8562065 -0.14607336
6105 0.03252236 -0.7571033 0.016353592 -0.41406608 -0.8460756 0.7649567 0.22804914 -1.996805 -0.10820753 -0.97843367 1.0050654 0.039839983 0.6692443 0.22103827
6177 0.34694585 -0.42211047 0.25540832 0.069498256 -0.25025472 0.61930585 0.24422224 -1.3275188 -0.41694912 -1.7292895 1.278689 -0.11616431 0.16276494 0.47892997
1690 1.3599046 -1.1637117 0.08226059 0.5942044 -0.5053867 -1.3856566 0.46772593 -0.2643587 -0.27140766 0.28548452 0.38816112 -0.3627308 0.077263325 0.17637856
6181 0.6162141 -0.626157 0.049975753 -0.7682998 -0.36812606 0.34658906 -0.17436044 -2.1318953 1.0149797 -1.4521252 0.24270964 0.11566212 0.9361079 0.2628355
13605 1.0399605 -0.7526751 -0.6089411 -0.35444042 -0.15731686 0.46036577 0.29296923 -1.3522931 -0.71165025 -1.6037457 0.7448233 -0.020910637 0.4688097 0.67373824
4266 0.3525319 -0.73469067 1.5507103 0.5778973 -0.4356544 -0.5857047 0.2686021 -0.9929304 -0.41086328 0.3194021 -0.24450995 1.2182664 0.18103975 -0.461254
6380 0.73421174 -0.7311736 0.7536866 -0.108776174 0.5784373 1.2142959 0.17188336 -1.2427746 0.24668017 -1.7594025 0.15374626 0.014641248 0.9603422 0.45055214
6081 0.32480404 0.82323027 -0.07465128 -0.9089739 -1.1034585 0.31173965 0.79235023 -1.6928967 -0.5930706 -0.70274264 0.91569775 -0.35629678 1.3440607 -0.14927164
51 0.35092503 -0.73825705 0.79651904 1.3601828 -0.33676776 -1.3889863 1.1204722 0.00079343666 0.03224997 -0.74417514 -0.712545 0.21468732 0.64460796 -0.8103604
3013 -0.13239017 -0.79727334 1.091777 0.48703715 -0.37234813 -1.0768511 0.9308867 0.1900458 0.45080996 -0.30847305 0.17777348 0.32974592 0.75100654 0.26974064
5316 -0.34548956 0.0111382 0.95017195 0.3469936 -0.10030846 -1.3166678 0.8025408 -0.012311925 0.036278997 -0.8324241 0.02277099 0.40661547 0.921761 -0.822231
2322 0.075745106 0.11083964 0.31734103 0.8928271 -0.01031464 -1.4854435 0.9284793 -0.009149329 0.0051160045 -0.5056676 0.40724775 0.48545578 0.67298895 0.40764928
6154 -0.34517574 0.08529313 -0.19413552 -0.12157258 -1.0549355 0.8132617 0.83633906 -1.7797043 0.30360934 -1.3822923 0.49248454 0.12486951 0.98874855 -0.28380314
4707 0.9016911 0.19869728 0.11797797 0.605575 -0.047621544 -1.064272 1.4362684 0.3549232 -0.7153771 -0.19033466 0.2493858 1.1429348 1.2288247 0.3232893
6216 0.4663275 -0.58510554 -0.22893777 -1.2088068 0.14461876 0.2760819 0.62056106 -1.6413233 0.45675597 -1.2339957 0.45942977 -0.3497604 1.0325396 0.4582143
6153 0.3193481 0.14282739 -0.43765917 -0.6318187 -0.68090516 0.9853543 1.5114108 -1.6632239 0.39336 -1.4480704 -0.06854228 0.13392664 1.0772934 0.11967308
4320 -0.14267829 -0.45335376 0.6453045 1.1211085 -0.09948295 -1.3329657 0.84917486 -0.2362732 0.26435652 -0.30084586 0.15650623 0.55600834 0.73277354 0.15909028
4860 0.48810288 -0.434821 0.032834668 0.19402124 -0.8810154 -1.849056 0.856888 -0.32262954 -0.1500159 -0.6032872 0.8037703 -0.07829694 -0.19698942 -1.2471436
6115 1.0295182 -0.21388847 0.5561024 -0.505793 -0.054318883 0.88903254 -0.0937676 -1.9409316 -0.33171868 -1.4483488 0.8765066 0.05140364 0.44181472 0.08910737
6227 0.66108555 -0.24241096 0.65073794 -0.111200176 0.3977514 1.3718622 0.7952523 -1.3220141 -0.799441 -1.486243 0.6558806 0.039993383 0.31962717 0.16021475
6116 0.82981265 -0.4086909 -0.20573978 0.09361598 0.2729799 0.9028165 0.3315846 -1.1649044 -0.298259 -1.7368504 1.0748338 -0.2960147 0.793453 0.27681324
3976 -0.05944526 -0.33762 1.1144447 0.54393655 0.35271534 -0.85330456 0.44731966 -0.6877132 0.1432148 0.38400367 0.8548996 1.0235934 0.77675486 -0.3506494
4921 0.17460042 -0.5460811 0.5265728 0.37890708 -0.61035 -1.7139541 0.39235085 -0.20321189 -0.09198566 -0.6232271 0.69280547 0.33702344 0.12273225 -0.90196615
6263 0.7302232 -0.62308085 0.116319306 -1.1151123 -0.6843981 0.16956468 0.33353627 -0.7448852 -0.34261417 -1.99203 0.792211 0.18558538 0.79488426 0.65391487
1528 0.8397774 -0.8044155 0.6557301 0.4237912 -0.48174015 -1.7121905 0.94246644 -0.36679485 -0.43861762 0.3495268 0.43257526 0.04291348 0.06717834 -0.43878207
2524 0.90338635 -0.5336763 0.1551813 -0.13806742 -0.6003064 -1.4729111 0.87455934 -0.45786974 0.28547013 0.45232382 0.39242616 -0.098563 0.21941969 -0.6303894
4867 -0.3206012 -0.24011563 1.1058298 0.8096504 -0.009657254 -1.4102794 1.0340682 0.020900223 -0.01585164 -0.7449123 0.10372807 0.4703022 0.64694494 -0.21568345
209 1.2126178 -0.35580945 0.014713146 0.8713302 0.4118217 -1.1784904 1.2408297 -0.15826571 0.5434327 -0.53702503 -0.6851716 -0.6462474 0.28018832 0.1275054
230 0.7283723 -1.071003 0.7872001 0.7213398 -0.7201018 -0.79166394 0.86353064 0.19073854 0.5433682 -0.15437903 -0.89681715 -0.29650447 0.9786403 0.26518115
6222 -0.340581 0.480985 -0.36646703 -0.12396611 -0.72582024 0.38231537 0.8530485 -1.8274183 -0.008859845 -1.3634775 0.29115698 -0.510503 1.3641866 0.25865427
3935 1.1887044 -1.4927764 1.2317868 0.07559562 -1.0248463 -1.2453775 -0.22727153 -1.0863718 -1.4220958 -0.045245036 -0.34065434 1.1295906 -0.12576497 -0.11607342
13555 0.8618106 -0.34055883 -0.2773967 -0.8970041 -0.67187077 1.042352 0.78033817 -1.117734 0.0588473 -1.3418386 0.19741066 0.36332408 1.1179171 -0.33406106
2822 0.54607415 -0.3695135 0.51633453 0.4392017 -0.8804872 -1.6743331 0.49785572 -0.4497487 -0.35174906 0.110081315 0.99086446 -0.061435677 0.3251848 -1.1593933
3757 1.1940984 0.1983884 0.47536945 0.31788623 -0.20252414 -0.74629766 1.2959033 0.42133567 -0.9058527 -0.108816296 0.07673868 0.52125055 0.55133766 -0.17093936
1922 0.67908645 -0.4705202 0.41482592 0.5825698 0.12657022 -0.9457079 0.8351601 -1.1521691 -0.53230995 0.771197 -0.15518844 0.2248853 0.25382367 -1.0370021
3760 1.3058414 0.17345236 0.41279092 0.37228212 -0.11456572 -0.8143355 1.379103 0.54608876 -0.8056016 -0.10760447 0.24226771 0.48785993 0.63235146 -0.06362095
4666 0.81018496 0.06610881 0.12677675 0.71509296 -0.032788515 -0.88604003 1.4744062 0.40531018 -0.7541843 -0.17406745 0.38623136 1.2182282 1.0794058 0.059927396
3880 0.6028173 -1.0662415 1.4299034 1.0145062 -0.7484817 -0.40297717 -0.297321 -0.79290503 -1.3191401 -0.3625309 -0.50263655 0.8674821 0.5087447 -1.0760906
4654 0.8519134 0.030607332 0.19495527 0.5883423 -0.040731676 -1.0263629 1.1941109 0.35722122 -0.6815447 -0.2670051 0.26622093 1.2387977 1.0100375 0.3364403
6158 0.8765021 0.01040815 -0.39153862 -0.8936487 -0.15621966 0.8108264 1.0380352 -1.5661945 -1.3318783 -1.0429206 0.045661096 -0.21303765 0.8545266 -0.23483652
3791 1.1118453 0.27148977 0.13104065 0.54906327 -0.21113138 -0.95115656 1.440397 0.39049175 -0.90382826 -0.11713985 0.27793536 1.1081601 1.1383224 0.2577867
3795 1.0536772 0.18282348 0.14841315 0.6231852 -0.08649638 -0.9801677 1.5104353 0.44755015 -0.9684578 -0.20092344 0.19046679 1.0851791 1.2092428 0.2862206
7696 1.2049009 -0.16234675 -0.63998663 -0.14432783 -0.14282008 0.69906145 0.5884241 -1.6241797 -0.0118508395 -1.39777 0.7004413 -0.23948164 0.8562635 1.1489942
21 1.3847549 -0.824614 0.54330266 0.76270276 -0.915664 -0.59549826 0.9649864 -0.18719636 0.14344598 -0.020523198 -0.21505713 -0.8431961 -0.2989971 -0.5545256
350 0.78784406 -0.46795663 0.20019832 1.5378062 -0.21432556 -0.7106672 0.552537 -0.68119395 0.26720148 -0.065528505 -0.31641933 -0.59269834 0.2669097 -0.22369646
630 0.9157386 -0.3413983 0.13933636 1.9129852 -0.5279732 -0.21397646 0.91691864 -0.40825307 0.38430732 -0.028276183 -0.1853136 -0.43957174 0.46624663 -0.33124685
6224 0.56908584 -0.59513646 -0.13915123 -0.5174717 0.08063461 0.9655465 0.64088947 -1.9841374 -0.039834183 -1.125187 0.9164688 -0.41238222 0.35146725 -0.22242413
4254 0.024469635 -0.89501095 0.53371865 0.99824655 -0.06482084 -1.3300698 0.7513324 -0.35022935 0.2421365 -0.10324508 0.2202045 1.0646352 0.65868264 0.2780815
6142 0.570373 -0.36482513 -0.26164466 -1.2356246 -0.21913773 0.5718236 0.9366182 -1.2644409 -0.45515072 -0.92994636 0.49035344 0.11715895 1.6443337 0.95405006
5525 0.51973647 -0.16306289 0.322204 0.123516575 -1.3358172 -2.0237343 0.6732245 -0.5566145 0.15327205 -0.30943975 0.5865691 0.17906299 0.052121066 -1.0562757
647 0.7582727 -0.11832497 -0.08043293 1.5738891 -0.079530194 -0.82246786 1.1453393 -0.07817339 0.69571733 -0.34717596 0.45922184 -0.92314124 0.58283514 -0.33426383
2306 0.670737 -0.41223696 0.71109277 0.33153415 0.17470627 -1.2071407 1.123459 -0.20496042 0.12081896 0.37531146 -0.06690518 -0.14442989 0.86748415 -0.39561534
6065 0.3616925 -0.2731915 0.32324433 -0.77063453 -0.4853869 0.15690878 -0.11534098 -2.276137 0.7514314 -1.4047565 0.34198382 -0.15596592 0.59430707 0.298763
6172 0.003249218 0.50732595 -0.12233395 -0.28024128 -1.251122 0.5882437 0.7738621 -1.765984 -0.4624736 -1.4526706 0.15092959 0.12024346 1.1476507 0.039035756
4553 -0.34396902 -0.61459684 0.67981803 0.8770653 0.05176041 -1.0924739 0.83299756 -0.25543866 0.02464678 -0.5240245 -0.08085173 0.8522643 0.4939202 0.12086031
6106 -0.26050422 -0.61818075 -0.14823149 -0.16387449 -0.6844851 0.7904958 0.31908163 -1.9476966 -0.04958593 -1.4422868 0.009027995 -0.27607816 1.1104892 -0.019574117
6183 1.7104971 -0.7942051 0.052567907 -0.53699905 -1.0698975 1.1616285 0.7498401 -0.41572767 -0.16208275 -1.9872993 0.53133494 0.42050043 0.38436082 0.1485511
2848 0.488586 -0.7718284 1.0021908 -0.06412449 0.18483649 -0.43933013 1.1132904 -0.5587096 -0.8856229 0.5918272 -0.45862916 -0.3897101 0.54061806 -1.1413835
3904 0.061359145 -0.29793358 1.505122 0.38455445 -0.13195068 -0.802953 0.5557903 -0.32508233 0.84262264 -0.08634525 0.55818963 0.45271656 0.47198606 -0.6525612
5529 -0.33596995 -0.6094623 1.2048093 0.45329267 -0.31837502 -1.4064441 1.1889321 0.087428465 0.27996218 -0.8697295 -0.22906142 0.2720644 0.32822073 -0.24556886
1850 0.52667946 -0.29016948 0.44104463 -0.050451905 0.20815596 -1.6813012 0.94526535 -0.20893629 0.45170712 -0.23164162 -0.041057866 0.27646768 0.7066864 -0.6476305
159 0.57431245 -0.0029894284 0.17651983 1.3975121 -0.65272623 -0.31103256 1.384123 -0.035150267 0.2212313 -0.41322803 -0.16474801 -0.5297247 0.6252568 -1.4017394
484 0.7808541 -0.43253526 -0.12981252 1.8320804 0.4585152 -0.33662048 1.0235356 -0.097556435 0.22752044 -0.5489405 -0.14716959 -0.51361936 0.79667145 -0.79223317
6144 0.12055381 0.38965547 -0.56040686 0.12120408 -0.64464897 0.66634125 0.9221705 -1.3311611 0.2698456 -2.2574682 0.25451747 0.25748745 1.0122714 -0.18023176
3781 -0.07802879 0.22919919 1.6012405 0.64899147 -0.097807415 -0.95372796 1.0259937 -0.46352604 0.25257128 0.017668337 0.39543504 0.60667175 0.65494347 -0.869284
273 0.769174 -0.23870063 -0.015565817 1.3459996 -0.3439687 -0.48900807 1.2196321 -0.6165733 0.68272775 0.17064413 -0.12951611 -0.85944045 0.45641586 -0.69801307
4667 0.8936119 0.0845145 0.06358604 0.73565555 -0.07482347 -0.95469385 1.4632107 0.34809047 -0.81070936 -0.122923285 0.39848924 1.3049197 1.1505214 0.17085406
1584 0.9650949 -0.7101307 0.24919502 0.4514826 -0.24017376 -1.3905025 1.002512 -0.49322662 -0.29953873 0.6273427 0.24087544 0.24363364 0.2589834 -0.178896
4688 0.78243047 0.14794278 0.047440067 0.634771 -0.09922038 -1.1782221 1.2515326 0.30439076 -0.67123127 -0.18165557 0.3530865 1.1053344 1.2249355 0.38375226
535 0.8696052 -0.8474425 -0.19881393 0.7893283 -0.4800637 -1.0644214 0.8534386 0.070619464 0.26692617 0.094731495 0.73133 -0.75845623 0.54271847 -0.5309386
346 0.25342306 -0.39419988 -0.038624194 1.4699345 -0.59890956 -0.61533505 1.8294367 -0.40493077 -0.6411385 -0.22532094 -0.24120949 -0.5519123 -0.33173195 -0.50669587
4163 0.6740542 -0.52891505 1.319626 1.4111779 -0.7365238 -1.6439886 0.5096481 -0.2527091 -0.43754005 0.09159374 0.023788441 0.41911376 1.079696 -0.38051933
6208 0.38834548 -0.6309509 -0.0046406174 -0.5992414 -0.28966367 0.71085155 0.37444612 -1.6146291 -0.43964878 -1.2577875 0.9810775 -0.33371222 0.7805726 0.30783162
4511 -0.658852 -0.023817088 0.7446306 0.86889887 0.14103445 -1.5644996 1.0299466 -0.553197 -0.26579455 -0.52785516 0.20385247 0.57619464 0.31632996 0.47567633
3788 1.1627446 0.15226738 0.15699121 0.61875343 -0.11762711 -0.9822207 1.4705279 0.45734176 -0.97328264 -0.14195867 0.21684323 1.0857226 1.1872066 0.19102253
6125 0.996592 -0.34058493 0.57023054 -0.1368182 0.34850067 1.2865787 0.7030731 -1.0383523 -0.42274812 -1.3674291 1.1447519 0.51069283 0.28002828 0.39345425
2118 0.85195667 0.22114249 0.67163354 1.4678792 -0.32475752 -1.5643489 0.61294854 -1.2885249 -1.4307313 0.5902103 -0.06294364 0.1157049 0.5896892 -0.3838156
3786 1.1563604 0.16237813 0.15883856 0.5517494 -0.19262563 -0.9811434 1.4621478 0.4758654 -0.9977463 -0.1430002 0.20476604 1.056759 1.1566523 0.18170702
17 1.2772148 -0.44681913 0.443894 0.6963408 -0.71917176 -0.6233572 1.2298118 0.5350891 -0.40674472 -0.14876805 0.004530954 -0.39711562 0.2554901 -0.24552952
6274 0.37538782 -0.74947435 0.554059 -0.022140384 0.12599105 0.8325947 0.07942056 -1.634705 0.6702832 -1.843112 -0.16842848 0.15989278 0.9591666 0.9158841
6186 -0.4722943 0.061083484 -0.44596413 -0.4914616 -0.3392384 0.58002037 1.3784357 -1.7215776 -0.49374157 -1.600437 0.29205334 0.042039264 0.7324364 -0.60236365
6164 0.038693935 -0.45113438 -0.28831947 -1.0132154 -0.111194186 0.13695088 0.6976297 -1.5548414 0.02726436 -1.3910651 0.4740118 -0.11942381 1.0276084 0.6641061
6197 0.27628252 -0.77080435 0.760123 -0.09684655 0.43169045 0.9167342 0.21167271 -1.3789182 0.41944906 -2.0877266 -0.32777277 0.05431398 1.3445827 0.785814
5065 0.4302998 -0.4077365 -0.03659789 0.36601725 -0.99088037 -1.9801711 0.7279686 -0.45506126 -0.33341295 -0.41555762 0.81111443 0.03644857 -0.037313085 -1.0641425
4301 1.0786217 -0.83823544 1.5333505 0.8849168 -0.22208637 -0.7932873 -0.32771298 -1.052411 -0.95006585 -0.3395503 -0.5925068 1.2801718 0.003271579 -0.256765
3759 1.2310632 0.21516046 0.56664807 0.2930918 -0.17385481 -0.76179504 1.2270174 0.44264576 -0.9463234 -0.12768863 0.10435753 0.54638714 0.5933679 -0.17064081
3919 0.45524508 0.15346003 0.9965364 0.3205677 0.19311666 -1.3409104 1.2076277 -0.02733896 -0.05382965 -0.7299218 -0.14084288 0.52984446 0.1592313 -0.8373615
2303 0.7028204 -0.2424627 1.2793356 0.99953556 -0.26897955 -0.81668997 1.0056163 -0.0017306174 0.0708411 -0.25613892 -0.22338478 0.48750857 0.3385889 -0.61165327
1916 0.03008911 -0.47587147 0.8562496 1.0718102 0.13786316 -1.2140952 0.9752851 -0.6807549 -0.043419927 0.62886566 0.3148676 0.13785575 0.8906277 -0.0048824074
6096 0.94668466 0.020398324 -0.088355646 -0.45511237 -0.39383045 0.85841995 0.9660872 -1.7779416 -0.081454575 -1.802216 -0.9369412 -0.010298275 0.55785 0.47499603
725 0.9595397 0.07788901 0.22382513 1.5302103 -0.00039574504 -0.3811095 0.7993869 -0.7348526 0.7250099 0.21819253 0.58408093 -0.7797076 0.4568736 -0.878975
6201 0.4943432 -0.8779334 0.42923996 -0.50521845 -0.1774001 0.7867921 0.10274849 -1.6801212 0.10350125 -1.8595203 0.31797978 -0.27640626 0.90050906 0.76179606
1677 1.2218882 -0.44190013 0.02187404 0.8469339 0.41732085 -1.2004516 0.73875093 -0.7182888 -0.13045374 0.49476898 0.4564601 0.040113196 0.09374675 -0.08663126
4682 0.9969905 0.020060746 0.05237557 0.6492169 0.013784858 -1.0313567 1.4360144 0.39599735 -0.735147 -0.11351088 0.37407315 1.1272054 1.1647136 0.31976914
1840 0.84619373 -0.37988132 0.27270445 0.046580113 0.17616636 -1.1579001 1.5503995 -0.79469407 -0.08455515 1.1648986 0.45426005 -0.03023923 0.25418562 0.13478033
23 1.2035724 -0.62824035 0.3037852 1.0958669 -0.95416814 -0.8769233 1.2525977 0.21103649 -0.13686512 -0.5129244 0.033551227 -0.38209167 -0.4350384 -0.2826385
4681 1.0199544 0.055232354 0.039991893 0.5079113 -0.04916783 -1.0553656 1.3659452 0.3915867 -0.666344 -0.10345418 0.2369938 1.060098 1.1929387 0.27750865
4875 -0.3760064 -0.21937327 0.9687101 0.86025196 -0.18317929 -1.5348787 0.6121506 -0.42277226 0.27719286 -0.40180048 0.20170304 0.565518 0.74182624 0.33907104
6207 -0.33332035 0.28864405 -0.24026887 -0.5731719 -1.3722149 0.15283851 0.7254796 -1.5129328 -0.67395186 -1.3327701 0.21581605 -0.56248444 1.5145097 0.072016045
3790 1.1224115 0.22155729 0.13114157 0.5845675 -0.15025368 -0.9372153 1.5071995 0.43082833 -0.91989774 -0.1342785 0.2482509 1.1098844 1.1001152 0.255182
4733 0.9774968 0.12275754 0.10251536 0.7032704 -0.06397298 -0.9841016 1.4399838 0.36654 -0.79439795 -0.09923932 0.31658065 1.185391 1.2314898 0.3604698
6099 0.39541444 -0.8262995 0.67568225 -0.019160459 0.49728218 1.0115545 0.115997 -1.205179 0.34647253 -2.0046585 -0.16737369 -0.049051408 1.591259 0.74793077
4680 1.0024728 0.09351418 0.08405302 0.6006604 -0.023956636 -1.0198069 1.3674769 0.33312073 -0.61234385 -0.05356974 0.28293848 1.0995828 1.2190945 0.36634105
2344 0.7556611 -0.30273885 0.95829564 0.6729486 0.077952 -1.403195 1.1772821 -0.070896216 0.23852159 0.29658836 0.2615031 -0.35152212 1.13969 -0.89574355
2538 0.2819053 -0.7936401 0.55206996 0.22942555 -0.032220908 -1.3863598 1.0777146 -0.56510544 -0.77505827 0.62199694 -0.29705015 0.0871247 0.6977794 0.0057654884
710 0.35453808 0.27385733 0.69766605 1.1927234 0.4048572 -0.9168528 1.2923307 -0.4086185 0.3126384 -0.11479174 0.11258076 0.51578456 0.20182578 0.15726258
3107 0.15791118 -0.54321694 1.1679205 0.4086418 -0.2711199 -1.1243354 0.61536336 -0.27811 0.217697 -0.04162507 -0.3093807 0.19013686 0.7171591 -0.15994519
770 0.8012796 0.090028174 -0.23630893 1.2934959 -0.01900907 -0.542439 1.4374123 -1.102091 0.9324753 0.1448475 -0.34564203 0.033657614 0.068529055 -0.81686324
6300 0.5902025 -0.6906588 0.031999316 -0.39153326 -0.16923499 0.7792845 0.32933378 -1.633354 -0.60665256 -1.1344453 0.92916316 -0.16561289 0.40357393 0.38786992
3789 1.1162238 0.122450285 0.11769622 0.62182325 -0.19816083 -0.99296695 1.5151478 0.49377656 -0.9104955 -0.13448165 0.29507777 1.0436372 1.1659305 0.23783264
4678 1.0250247 0.14718063 0.035980858 0.6457741 -0.089885704 -1.0273819 1.3427982 0.3339635 -0.64672875 -0.092600055 0.23290932 1.1645168 1.3574312 0.42949724
6180 0.08358711 0.25939405 -0.115750626 -0.83551663 -0.71133304 0.5702523 1.2364239 -1.6374631 0.033175517 -1.4603542 0.3263298 -0.43365213 0.86958706 0.057173867
4661 0.79947066 0.12161857 0.088963605 0.5893904 -0.11852387 -0.9753066 1.4317203 0.33130893 -0.6092094 -0.09973982 0.33742195 1.2035158 1.1271842 0.050393347
452 1.292579 0.12710884 0.61588603 1.9473013 -0.13941741 -0.8585519 0.2611812 -0.46370986 0.36252218 -0.12769291 0.2008885 -0.04780953 0.8009116 -0.53675866
6365 0.40371424 -0.40228572 0.1288313 -0.59520155 -0.27341616 0.12440612 0.028457608 -1.880533 0.28084448 -1.3405157 0.9467403 0.00022636954 0.56222147 0.90218604
6079 0.9465156 0.46769693 0.36979473 -0.64464176 -0.5488323 1.11504 1.0479581 -2.1364875 0.5353534 -2.023995 -0.043611035 0.086907886 0.7820046 0.5426558
570 1.6316526 -0.78994966 2.0344534 1.1725781 0.46224195 0.54701734 1.7734387 -0.65657836 0.18040073 0.36453244 -1.0968219 0.24589026 0.25659516 1.0359675
6169 0.17522596 -0.7489321 0.45254552 0.08111125 0.6330737 1.198432 0.31236476 -1.5807043 0.4358077 -1.7155435 0.09578604 0.09426454 1.1202803 0.21638025
3892 -0.42516288 -0.72470105 1.412312 1.1706921 -0.3029375 -0.37200126 0.77921426 -0.16843766 -0.1872926 -0.017008035 0.4837492 0.7570926 0.68183136 -0.3759593
4668 0.78139514 0.11795533 0.15259685 0.6552317 -0.042578563 -0.87542915 1.4682378 0.34344423 -0.6670195 -0.091833234 0.27551585 1.2103342 1.1908811 0.16445373
1752 1.4911464 -0.88388747 0.5472909 1.0251392 0.06776161 -1.2092382 0.7788736 -0.6268814 -0.6131728 0.68963504 0.13310942 0.2034011 0.2510726 -0.34117284
5025 0.00837975 -0.3514074 0.8789749 0.79704386 0.2913295 -1.2952437 0.4508826 -0.49468654 0.12960732 -0.45783642 -0.252664 0.8886216 0.67702407 -0.18338777
1403 0.3555133 -0.7815077 0.8797498 0.3924562 0.4053969 -0.698639 1.0467674 -0.018041557 0.48593628 -0.03761455 0.16673349 0.59804773 0.5105685 -0.46812624
6148 -0.12217106 -0.6230094 0.3297773 -0.658406 -0.5237392 -0.044378676 0.038926415 -1.6501597 -0.29946622 -1.3133465 1.3291847 -0.20000604 0.8772255 1.2044418
5403 -0.22395493 -0.51562446 0.65085745 0.9575045 -0.37692013 -1.3044505 1.3761742 0.21464887 0.26732594 -0.7154951 0.10175974 0.44875202 0.44711515 -0.03402256
1885 1.3016984 -0.63541013 1.1986688 0.699429 -0.20168592 -0.9144962 0.76246 -0.231962 0.16797405 0.32830688 0.39121944 0.27794755 -0.11616762 -0.18256919
6282 0.72609305 -0.16190109 -0.11126357 -1.3281529 0.12950209 -0.053157296 0.30926022 -1.899982 -0.058501936 -1.3297304 0.5363581 0.074780345 0.6306211 0.3040086
4363 0.117112234 -1.0690062 0.8017459 0.4152557 -0.42054835 -1.0688143 0.8688178 -0.247312 0.41648448 0.4021161 0.09960418 0.58104974 0.8493286 0.27107185
4400 -0.29410213 -1.1900446 0.6226593 1.2044535 0.48018312 -0.66105235 0.6933503 -0.50116265 0.02293155 -0.13584276 0.15576264 1.4825449 0.917174 -0.391471
2113 1.7433347 -1.3161907 0.21925198 0.40663058 -0.9494154 -1.3566517 0.4547244 -0.5688733 -0.488695 0.69133705 -0.034413613 0.285943 0.10949848 0.33020875
2187 0.6540149 -1.004057 0.042049777 0.4622539 -0.8519562 -1.4352589 0.6483967 -0.25042498 -0.19896555 0.3580284 0.33364728 0.44193074 0.59158176 -0.28887406
6124 1.1128317 0.28608006 -0.45678407 -0.25071812 -0.7343483 0.8653041 1.153836 -1.9302686 0.46670896 -1.142736 -0.36572185 0.041787 0.5296569 0.7528018
2755 0.39014792 -0.33269638 0.9786164 1.0106959 -0.62537086 -1.1317698 0.81878793 -0.4986006 0.24604599 0.1534427 -0.33224657 0.15198423 0.5815378 -0.28969783
1639 0.6706131 -0.6015989 0.8188275 0.83183104 -0.008308444 -1.2317822 0.41688463 -0.014667748 -0.05306238 -0.2523312 -0.08347773 0.444658 0.9249653 -0.482543
6187 -0.42525008 0.3769397 -0.27496853 -0.40898943 -0.9723439 0.49418023 1.1748792 -1.7753009 -0.286793 -1.6034099 0.2534153 -0.20660496 0.9413231 -0.3491746
4686 0.8025057 0.10296235 0.056141876 0.6590972 -0.006415924 -1.0824955 1.3388697 0.28511617 -0.51479113 -0.115714535 0.3145075 1.0898947 1.1795189 0.39358902
6188 -0.097001754 0.9968636 0.31771708 -0.8095586 -0.6257043 0.3334688 0.87508625 -1.4876001 -0.36305773 -1.8314464 0.5774963 0.30908874 1.5248262 0.0030484684
6162 0.9526041 -0.4662115 -0.09910877 -0.43542758 -0.4556906 0.75425565 0.0015570191 -1.4792101 0.008695432 -1.7308004 0.86379594 -0.32129255 1.2703232 0.55704826
4675 0.8403594 0.1674222 0.058825143 0.59094995 -0.08871268 -1.0137424 1.3950489 0.31103867 -0.68431056 -0.16915599 0.16384226 1.1635619 1.2141548 0.15445246
184 1.1630336 -1.0199597 -0.17050946 0.71094817 0.110646665 -0.8294189 0.8215292 -0.05294598 -0.18136357 0.40758693 0.56796575 0.052886926 0.39333972 -0.045498617
6175 0.9835874 -0.7852124 -0.6800148 -0.94668233 -0.2708793 0.13058549 0.19993523 -1.6082729 -0.088713914 -1.7770022 0.7035444 -0.1105121 0.38962257 -0.00057829835
6284 0.31723705 -1.16377 0.33658805 -0.038718574 -0.09132444 0.86823165 -0.21255471 -1.1730256 0.14472936 -1.8511491 -0.116614394 -0.14445807 1.6155336 0.6160825
2784 0.60656375 -0.36292818 0.9122359 0.69476277 0.15082496 -0.7455654 1.3359145 -0.6358334 -0.38895836 0.70162034 -0.39679092 0.18821397 0.50119185 -0.444213
4676 0.93873507 0.12234507 0.09824861 0.65309554 -0.059961874 -0.9908603 1.4797812 0.36184162 -0.7020529 -0.13349295 0.2500639 1.165011 1.238443 0.38931602
6211 1.797642 -0.82563704 0.08644399 -1.1424476 -0.78138405 1.3031309 0.60421133 -0.86872447 0.18405001 -1.3572563 0.50171214 0.67391074 0.97024935 -0.15179262
39 1.0521132 -0.673333 0.39403453 1.2204119 -0.9350381 -1.3020453 1.0927033 -0.30990213 -0.3523915 -0.48382372 -0.37370205 -0.92236584 -0.3764786 -0.6744697
5413 0.2939344 -0.6026506 1.1046107 0.03199335 -0.08856819 -1.3248689 1.2510841 0.08088781 -0.7345082 -0.6656247 -0.5838699 0.506311 0.08986808 -0.6327621
6283 0.41743174 -0.35067925 -0.3320101 -0.2752562 -0.4749937 0.42619795 0.5178792 -1.5362328 -0.23874657 -1.2359949 1.2754879 -0.06633899 0.77846414 1.1120648
2244 1.832131 -0.9663991 0.4087365 0.35840786 -0.07011129 -1.5192995 0.9421989 -0.44719148 0.07117705 0.16751043 0.0068845376 1.0239513 -0.24662983 -0.45931008
3161 0.8310441 -0.52964264 1.303997 0.45079896 -0.34990185 -0.80465376 1.3066206 -0.13909836 0.40704826 0.46629646 -0.47117573 0.33941862 0.70662856 0.032984
4679 0.9408539 0.044459067 0.026714899 0.6309645 -0.06747581 -1.008508 1.3871124 0.35368884 -0.68287206 -0.047196336 0.30189613 1.1670809 1.3169599 0.27911755
5482 0.45720443 -0.34224188 0.12754798 0.41190264 -1.0896078 -1.8776215 0.59425044 -0.4167504 -0.31251845 -0.48723164 0.92769754 -0.019225717 -0.10681092 -1.1193535
1473 1.2287809 -0.57592756 0.53056145 1.1918508 0.3066961 -1.0013047 0.040484287 -0.36331952 -0.105291985 0.010525428 0.16426237 0.08304754 0.56196845 -0.20430985
6297 0.6057075 -0.0016889019 0.915747 -0.27000827 0.5733857 1.1943241 0.85096115 -1.2152518 0.09056111 -1.4310335 1.000453 -0.39347243 0.40341166 0.23525032
5013 -0.34640887 -0.018550724 1.0264874 1.1424307 0.37120336 -1.3117646 0.9126364 -0.587183 0.07049205 -0.36881608 -0.12017222 0.772869 0.8009709 -0.0028234092
4673 0.8143585 0.1666503 0.08350509 0.6728268 -0.1398717 -0.96478176 1.3907819 0.33156377 -0.6973528 -0.122033514 0.29498988 1.2323962 1.2797713 0.24734518
925 0.9417984 0.024127193 0.5180862 1.2560422 0.0068332762 -0.59855944 0.30796227 -0.8193309 0.79057604 0.16442963 -0.17861392 -0.56806684 0.6897638 -0.28595164
3793 1.1385396 0.10734738 0.121305756 0.64077085 -0.061035328 -1.0132502 1.4399537 0.46764612 -0.92622226 -0.18529521 0.21432197 1.1025124 1.3332278 0.3246459
274 1.0058954 -1.582082 -0.16999575 0.84031546 -0.95191985 -0.54307383 0.5536908 -0.20539509 0.20676272 0.32138863 0.12812348 0.0054960167 0.2816965 -0.45192474
112 1.190785 -0.7428352 -0.17706797 0.87405133 -0.48906836 -1.34761 1.1899412 -0.1646029 -0.5468171 -0.15906914 0.08687798 -0.6423154 -0.3539676 0.09791545
13607 1.1524682 -0.70920146 -0.549633 -0.1166115 -0.26310536 0.854064 0.27057174 -1.7062564 -0.76007617 -1.6619749 0.44130024 -0.23897661 0.7646817 0.74463284
3794 1.1197265 0.1348732 0.16730745 0.6386486 -0.10779195 -0.99421465 1.5015017 0.50858575 -0.9617076 -0.17529438 0.23976316 1.0521793 1.2018931 0.22815737
1478 0.9940182 -0.72670156 0.29504985 0.86343455 -0.17510635 -1.4283962 0.54780626 -0.40532133 -0.65395385 0.2666916 0.67576504 -0.37286696 -0.0046288623 0.12846684
6167 1.0359786 -1.1384243 0.18168527 -0.61153 -0.39399034 1.1394919 0.62538075 -1.3335439 -0.95790446 -0.9794772 0.97715306 -0.3552856 0.5134236 0.83393586
3787 1.1237783 0.14869672 0.22144282 0.5758849 -0.14697534 -0.97034305 1.4444817 0.49910703 -0.9963872 -0.14950314 0.23800717 1.0016885 1.1558969 0.20232561
6242 0.12918468 -0.24272473 -0.44901899 -0.30776897 -0.6743283 0.7247383 1.2078657 -1.5851239 0.16217308 -1.4436778 0.55724734 0.56260633 0.23548776 0.3436235
1368 1.3357289 -0.23563503 0.9788511 1.4990664 0.38430107 -0.3088877 1.0409871 -0.0056450856 0.0704184 -0.14236881 0.4746356 -0.23771782 -0.24122258 -0.0104174
6174 0.08954126 0.44865716 -0.18928297 -0.5763496 -1.6149673 0.52620023 0.82315516 -1.6433389 0.03747953 -1.4300958 0.2873541 0.03192381 1.1796995 -0.32350785
4890 -0.13114417 -0.3773874 0.8119223 0.77710223 -0.09841312 -1.590554 0.8134872 -0.4582355 0.33359635 -0.4174553 -0.11977732 0.89553994 0.60632 0.030002687
3630 0.06964835 -0.6439265 1.4376333 0.90093035 -0.44955513 -0.8998144 0.64029855 -0.103760794 0.1360669 -0.072185844 0.25262386 0.67808664 0.65276533 -0.10880414
2034 1.4229211 -0.89905465 0.04163927 0.5436792 0.16982427 -0.99144346 0.7139292 -0.57107854 -0.25682232 0.6604933 0.17299816 0.19944857 0.38363302 -0.6827642
6333 0.00023775164 0.799123 -0.25769398 0.12921242 -1.2538261 0.38631055 0.8871396 -1.8372262 -0.18020317 -1.563137 0.49876603 -0.43363032 0.8699709 0.53114563
5635 0.15651067 -0.78256154 1.410024 0.09845003 -0.19364175 -1.5842036 0.6130503 0.08277209 -0.025530735 -0.797659 -0.0002873268 0.5330868 0.19943236 -0.20260912
1271 0.21802258 -0.97382134 0.49182716 0.08182666 -0.27543247 -0.70276076 1.4298564 -0.12132235 -0.31416655 0.5706965 -0.6244127 -0.3580935 0.99205035 0.015861612
632 0.7958837 0.0345765 0.4260977 1.4659688 -0.33600134 -0.74790406 1.084688 -0.37733012 0.4281234 -0.06999028 -0.28850353 -1.4431769 1.0540979 -0.7794379
6264 0.42115584 -0.36384085 0.6134111 -0.79570603 0.05613134 0.7251006 0.803094 -1.3597026 -0.73964816 -1.3208315 1.0730044 -0.21875367 0.271006 0.5886777
6257 0.012143392 -0.2455436 0.28489673 -0.20654014 -0.81704265 0.5891849 0.8550271 -1.7475985 -0.51182 -2.4931862 -0.62848324 0.1408047 -0.01598908 -0.05841811
2733 1.0425864 -0.51570505 0.92393124 0.42210314 -0.21338958 -0.9583382 1.113545 -0.18546656 -0.12723334 0.45705676 -0.34426156 0.27839345 0.6537954 -0.38651198
6246 0.59008443 -0.2675289 0.9491311 -0.6640938 0.68843263 1.0477253 0.68952256 -1.387525 0.07590255 -1.3625739 0.84410065 3.259693e-05 0.495227 0.32993954
3815 0.14022525 -0.522723 1.2897002 1.1676842 -0.31678274 -1.0349228 0.8122573 -0.26064035 0.15404014 0.2280936 0.3166096 0.5107205 0.89933985 -0.23823063
3656 0.24690583 -1.1398122 1.0519375 0.7276083 -0.6199389 -0.80669725 0.7735972 -0.14385198 0.31238112 0.55981547 0.88339627 -0.015397309 0.6657609 -0.5716514
6408 -0.06356285 0.3721858 0.31740448 -0.59388715 -0.9557485 0.47778437 0.38110787 -2.1051834 -0.85139585 -1.2124102 0.63907355 -0.04220886 0.90103304 -0.06544687
6337 0.69971395 -1.036843 -0.51333636 -0.117419675 -0.17731383 0.6082534 0.3939595 -0.82009345 -0.77430195 -2.0365818 1.0053793 0.18402554 0.45927522 0.29090157
6196 0.8961454 -0.5774019 0.13171487 -0.40869597 0.09757846 1.0754317 0.44732574 -0.8777072 -0.030675048 -1.5455556 1.1943772 0.024867453 0.9377653 0.118438184
2688 1.0260495 -0.5807273 0.90479094 -0.14138353 0.04280259 -0.5470039 1.0961618 0.09374336 -0.20467657 0.5098003 -0.26923397 0.017425373 0.93451774 -0.42122132
6314 0.36223814 -0.008028134 1.0486403 -0.71107566 0.15932973 0.96978647 0.9786227 -0.8802635 0.1584262 -1.7518468 1.3588547 -0.036769524 0.36510184 -0.09377716
6117 0.573592 -0.81942916 0.103242904 -0.086816825 -0.7155406 0.6383668 0.48254147 -0.992701 -0.37167773 -1.5735488 1.0905317 -0.569343 0.43321854 1.2551271
6309 0.57453024 -0.5365238 0.36657926 -0.92955106 -0.42323115 0.30736658 0.10592633 -1.9714609 0.37495315 -1.3391694 0.2436271 -0.47773573 0.3435676 0.36500058
2661 0.1271002 -0.6863488 0.7283194 0.13141848 -0.9238021 -1.0415461 0.8632858 -0.39984775 -0.30978647 0.5236126 0.807741 0.3905774 0.16395974 -0.6291247
219 1.5392163 -0.6986088 0.51739204 1.3811384 -0.89191234 -0.88476676 0.66749454 -0.037562747 -0.213198 -0.17506771 -0.3554062 -0.7798037 0.43519545 -0.6105662
77 1.1184728 -0.74706495 0.27879554 0.94797516 -1.003244 -0.85103965 0.9688869 -0.071286686 -0.2835317 -0.20468485 -0.37450632 -1.0018237 0.07109602 -0.5667055
143 0.9820432 -1.1132697 0.091731675 1.0272707 -0.39939612 -0.9044904 0.8183224 -0.14271222 0.05210634 -0.5412554 -0.75190353 -0.7869793 0.015703242 -0.266258
446 1.4773132 -0.44036162 0.87770206 1.2922423 -0.4562855 -1.1362537 0.43571138 0.16629842 0.06328057 -0.34885624 0.05723872 0.21728514 0.43377572 -0.19251229
6233 0.6803144 -0.8507821 -0.4139744 -0.26698938 -0.30053326 0.8837247 0.7244157 -1.4132069 -0.626839 -1.4006008 1.1211356 -0.20072041 0.662734 0.8948453
395 1.0908881 -0.24512596 0.1904247 0.7874584 0.16123445 -0.7645365 0.9832744 0.2411006 -0.47543615 0.048456434 0.36333796 0.87805134 0.77224195 0.10087211
3223 0.07476151 -0.51108515 1.416009 0.2283545 -0.9175588 -0.7648123 0.47214338 -0.20963237 0.24564397 0.42600337 0.31545946 -0.11463324 1.0041256 -0.2388977
1819 0.84938 -0.40822545 0.70004004 0.42652196 0.12024018 -1.0473833 0.9005522 -0.42548284 0.20394897 0.7823307 0.20725402 -0.04293453 0.9842788 -0.23796932
141 0.7039865 -1.1218936 -0.16200608 1.0350817 -0.11392857 -0.29368642 1.0321698 -0.19704619 -0.010164139 0.16223145 -0.4052592 -0.1376719 0.6488417 -0.834015
5449 0.08927064 -0.2981255 0.6450415 0.35479677 0.21725093 -1.7322011 1.1673789 -0.0539244 -0.19146198 -0.5148198 -0.39658543 0.2795888 0.952389 -0.5855077
823 0.8587495 -0.43755987 -0.06470875 0.598165 0.51321286 -1.2630696 0.79119474 -1.2457838 -0.19429317 0.2884863 -0.33920735 0.20539245 -0.10598959 -0.81980765
6076 1.7952548 -0.07262186 0.49160007 -0.98267806 -0.46048376 -0.044042483 0.0077983146 -1.2216974 -0.13500659 -2.0135653 0.5415776 -0.021962231 -0.1803908 0.74219835
493 1.3190029 -0.7691147 0.54260844 1.1961896 -0.41964284 -0.7976275 1.3469914 -0.22649379 0.23420931 0.601857 -0.11474886 0.21241139 0.48898673 -0.31471002
4787 0.23201752 -0.18925442 0.7505701 0.8907209 -0.33202818 -1.3760282 0.6370521 -1.0998266 0.51530343 -0.11386849 0.14712289 0.92136645 -0.47612628 0.291229
6619 0.3837152 0.17078677 0.34328774 -0.6659292 0.56988484 0.8581046 1.0044185 -1.454898 -1.292464 -1.2474695 0.6719989 -0.06804003 0.7170421 0.08912405
6295 0.24825935 -0.023076838 0.8146626 -0.30858582 0.070884 1.1341621 0.685236 -1.4798647 -0.13145444 -1.3797778 1.39679 -0.29457122 0.56220585 0.029833201
6244 1.5934911 -0.065942466 0.76712596 -0.7291389 -0.6559144 0.7228228 1.2624581 -1.6584729 -0.03831922 0.04075379 1.3531092 0.31044322 0.84128165 2.5025854
625 0.19951063 -0.59340125 0.98118097 0.94631827 0.251117 -0.8947885 1.141088 0.09423146 0.10509995 -0.30471963 0.1338658 0.5204183 0.4438716 -0.12137527
6219 0.47014394 -1.1405097 0.47422004 -0.407106 -0.27127165 0.7588465 0.43692023 -1.5809475 -0.7231473 -1.3358815 0.8203979 0.29075688 -0.3075351 0.73275274
6229 0.024384152 0.5101149 0.6440423 -0.795353 0.106519304 0.78265285 1.2779173 -2.368998 -0.0630791 -0.9747562 -0.2996115 0.53803074 0.66899645 0.4036587
4119 0.05113303 -0.68048704 0.5798976 0.42600688 -0.0038414567 -0.82112 1.494503 -0.26331443 0.36630777 0.2464776 0.48117757 0.9959489 0.29987195 -0.46754006
295 0.9471623 -0.6797664 0.044853758 1.4929048 -0.38072342 -0.122817025 0.6835027 -0.9945323 0.826862 0.43858674 0.11399723 -0.68549484 0.24921119 -0.7194482
6209 0.4476083 -0.850969 -0.055047162 -0.9325432 -0.48319438 0.3063668 0.035411324 -1.2334629 -0.7713054 -1.7311039 1.0314234 0.20241083 0.91217226 0.10875553
6367 0.26289374 -0.34210545 0.30988348 -0.4840749 0.43213865 0.6417028 0.22815634 -1.7966943 -0.5809327 -1.1594487 1.3700571 0.5889638 0.6426772 0.1926732
249 1.1097269 -0.6673102 -0.5973658 1.425534 -0.32714352 -1.4156597 1.0901294 -0.34370002 0.3271058 -0.8947094 -0.77074057 -0.1646565 0.05430573 -0.15647927
6541 -0.02462886 0.6901809 -0.56292295 -0.053635824 -0.6913848 0.18518846 0.9523542 -2.236219 -0.41461772 -1.4352263 0.7850582 0.34754083 0.19571507 -0.11550168
415 0.10631209 -1.1965157 0.2926061 1.3268943 -0.042614784 -0.7430646 1.4379917 -0.9983967 -0.5871387 0.048412718 -0.37273407 0.17596911 -0.7857175 -0.3094448
6417 0.81301683 0.18499391 -0.23253407 -0.12721595 0.27219272 0.74395895 0.78580505 -1.1151663 0.16796571 -1.8147749 1.1545397 -0.008372383 0.6087524 0.30968264
192 0.8018633 -0.13781367 0.46206874 0.3962977 -0.030431563 -1.4271213 0.8284934 0.061308127 -0.13830127 -0.5014043 0.37595835 -0.15958244 0.016058024 -0.47079414
6503 0.21461608 -0.42653129 0.8818221 0.19683233 0.25857267 0.876392 -0.22726609 -1.4081014 -0.013361931 -2.0900612 -0.031013956 0.17909461 1.7528181 0.8477738
3926 0.51365715 -0.8114725 1.0865405 0.7782465 -0.60866207 -1.3702606 0.7717306 -0.23242417 0.1567524 0.20603369 -0.08467854 0.7698296 0.82435745 0.039870836
6342 0.43394205 -1.0877912 0.27984607 -0.055464566 0.7025801 0.91894746 0.36421546 -1.1204801 -0.015958397 -1.8988357 -0.409246 -0.18730262 1.5363827 0.92225087
1092 1.2235342 0.33057073 -0.0169299 1.0961268 -0.4752976 -0.87570554 1.1613847 -1.1659625 0.8475595 0.51048744 -0.5090586 -0.89155877 0.6165495 -0.018189058
6364 0.9592881 1.5556568 0.64150554 0.277998 0.44307345 -0.24041589 0.5147068 -2.741413 -2.5647895 -1.4283388 0.21887724 -0.47865742 2.0363607 1.3606558
6289 0.8632713 -0.42174685 -0.27346653 -1.1637005 -0.2360256 0.66952705 0.6378585 -1.7379457 -0.25801107 -0.7405368 0.8200611 -0.14365397 0.60450244 -0.27814293
6156 0.54027885 -1.1031997 1.0587108 -0.8023307 -0.2892984 0.44443172 0.3045606 -1.621081 -0.6414034 -2.405312 -0.18698838 -0.5879785 -0.5289496 -0.10921248
